svm_type c_svc
kernel_type rbf
gamma 0.06666666666666667
nr_class 4
total_sv 226
rho 0.6088725320526979 -0.3520128150134898 -0.5131115596713529 -0.6646209326787625 -0.757580494605815 -0.18121625028478752
label 1 2 4 3
nr_sv 86 109 14 17
SV
0.9416509163502725 0.34809144210728693 0.19978188070064382 1:5.020024108886719 2:-8.311136627197264 3:-2.4810836791992186 4:0.9036374166631147 5:3.1940798900852534 6:1.1941870267526244 7:-0.7728542731244052 8:-0.4191311995977983 9:0.3488093637446775 10:-0.2945040168540643 11:-0.02927169642781569 12:-1.5834539862213268 13:-1.5879978955150738 14:-1.1280945718867934 15:3.3574761241456277 
0.08774522125140048 0.060855732103309995 0.18442807591592336 1:5.1386863708496096 2:-7.990457153320312 3:-1.9838851928710945 4:0.8942696214531306 5:2.123456957316952 6:1.7853521454357526 7:-0.49505362085884314 8:-0.5264917614253491 9:0.1778393798460096 10:-0.15015010442306814 11:0.1145146162940665 12:-1.7372447870861107 13:0.2548593687262691 14:-1.1352819780835335 15:2.303285011211403 
0.4090196921915015 0.14298773020135083 0.2450491478082667 1:5.017081451416017 2:-8.142462921142577 3:-1.8877784729003917 4:0.8298973216087331 5:4.6919029971928055 6:1.543873608402794 7:0.08938429336383175 8:-0.21876571603462788 9:-0.03250395185300902 10:-0.057471413643688934 11:-0.905940797202111 12:-0.5635058076806199 13:-1.1690293299028356 14:1.6174933770646844 15:1.7056710391584153 
0.8104748509164649 0.15035130373061703 0.0 1:4.831735992431641 2:-8.082643127441402 3:-1.453343963623047 4:1.109430932120305 5:4.89357038454384 6:1.7000574642856385 7:0.26245823233643206 8:-0.23422401688671624 9:0.04468769267524868 10:0.2344941498181761 11:-1.0378663214483022 12:-0.7538069053284265 13:-1.2392413463908472 14:1.286724213110427 15:-0.022878883212595864 
0.1515445941271023 0.19530816205748242 0.7534643689751567 1:5.29363021850586 2:-8.115982055664066 3:-2.1584442138671873 4:0.4490743441571242 5:2.6040107112145225 6:1.3318238925095642 7:-0.714887600636554 8:-0.38196695538361564 9:0.1801157565996367 10:0.6565644123067929 11:-0.1312003959975326 12:-0.8455198052723238 13:-0.18937227040561277 14:-0.893253180065806 15:-0.7859422965354159 
0.0 0.0 0.14610717648788332 1:5.517221832275391 2:-8.413124084472667 3:-2.1035270690917978 4:0.7018177914497202 5:2.826427288015876 6:0.9292729288543351 7:-0.7837395669847456 8:-0.2249806660506127 9:0.19817126860658785 10:-0.5333435003657675 11:0.10083729735393773 12:-0.8821403845475468 13:0.8426210905402622 14:-1.005023809691351 15:0.3633635105640155 
0.5592886341286396 0.253904199533553 0.0 1:5.397579193115236 2:-7.909062957763669 3:-2.4938301086425794 4:1.0089636501128552 5:4.313345198782029 6:3.272616011027133 7:-0.5513785148935068 8:-0.5537755035707529 9:0.22444811816856364 10:-0.5165289170939694 11:0.2155430951762453 12:-1.0429750273949285 13:1.0672661774212762 14:-0.26930518247653756 15:-0.6936001946630961 
1.0 0.0 0.0 1:0.5011184692382813 2:-10.048873138427735 3:-1.112073516845704 4:0.8198138841218325 5:3.597635323611903 6:1.6236297073605261 7:0.18426717899252157 8:0.05054435460724083 9:-0.28203083710290167 10:-0.6522445433633024 11:0.1341828658573208 12:-0.046196289655127495 13:0.34438298019535796 14:-0.9683179288874086 15:-1.1516070778583123 
1.0 0.0 0.0 1:0.6521423339843757 2:-9.435958099365237 3:-1.4602104187011726 4:2.1664072968205446 5:2.6691120834898907 6:1.5920985821000078 7:0.04042774384050698 8:-0.10051391031259739 9:-0.4323831992528977 10:0.9115999415913505 11:0.2605461499994955 12:0.8169943618933134 13:1.0857529286830585 14:-0.7308450765386025 15:-0.4341228412566605 
1.0 0.08753322544071085 0.05627096578335606 1:0.5687850952148447 2:-10.228336334228521 3:-0.8198364257812507 4:2.113171965905931 5:2.906248268971121 6:1.6005315309064478 7:-0.4003009529165893 8:-0.1669644236126537 9:-0.19053424480544165 10:1.135432122572591 11:-0.20378951022731173 12:-0.07606464964775084 13:1.742510045133797 14:1.0566417457398183 15:-1.6102195769672436 
0.06441057135041442 0.0 0.0 1:1.6788978576660174 2:-10.033182525634768 3:-1.6602668762207042 4:0.5788065731496322 5:3.119637297752189 6:1.0821184820932115 7:0.3195907544663517 8:-0.20536132997052903 9:-0.45909621552131336 10:0.38430631748518584 11:-0.24554250465907457 12:-1.0272013721112312 13:-0.7049521363891669 14:-0.9862829376250503 15:1.33767526025362 
0.002424978793820392 0.0 0.0 1:1.3778350830078137 2:-9.87627639770508 3:-1.6269233703613295 4:0.80190282970667 5:3.352558758884554 6:0.9490278475329997 7:0.24332543056322103 8:-0.19992344616129987 9:-0.5305052654504804 10:0.9936946113524509 11:-0.170424049507014 12:-0.8079017642057735 13:0.8005762513404199 14:-1.0822942860722544 15:0.8315076836823505 
0.8449155046991198 0.14885014829115636 0.10388043138676045 1:0.7355003356933593 2:-10.239123535156251 3:-1.1787582397460943 4:0.9873817077110308 5:2.208284462071034 6:0.8328325445274831 7:0.3008217199353196 8:-0.31873476086374947 9:-0.4858456508448937 10:0.9524474063101489 11:0.43651492518201546 12:-0.9175826605161355 13:2.6657446546524706 14:0.05873945410937643 15:1.8856346345799753 
0.9316846690078687 0.0189054165391319 0.01826328518843787 1:-0.08531646728515704 2:-10.789276123046882 3:-1.1159980773925777 4:1.8724451080453597 5:1.9785722069442275 6:1.602389406842995 7:0.42626029880019384 8:0.3002266212811276 9:0.17842779236485656 10:0.07822656447899468 11:0.2662490793370721 12:-1.099530006872783 13:-0.04377518782527056 14:1.5078631604488544 15:1.0151649779259366 
0.04990567842881686 0.026188449973744667 0.011562602731684126 1:0.4069763183593748 2:-10.66277084350586 3:-1.6014282226562497 4:3.0094283274933713 5:2.8802783273224364 6:2.05898284561932 7:0.6173077684319175 8:-0.11083125814795645 9:-0.11378018789826388 10:-0.09438614081916542 11:0.5287616062374346 12:-0.6276484816137905 13:-1.0210794862199297 14:0.3154291843228225 15:-0.45493148824718943 
1.0 0.0 0.00865380260662638 1:1.340570068359375 2:-10.335228729248051 3:-1.7181266784667972 4:0.546102949124761 5:3.2891226426343345 6:2.4012800178088964 7:-0.01566254745162677 8:-0.26964951827143885 9:-0.4459699549947648 10:1.3702340343916413 11:0.33599799310691386 12:-1.1248616292528992 13:3.828134411245913 14:0.9355475458672331 15:0.42352871591420105 
0.0 0.021527402183087928 0.0 1:0.9188850402832041 2:-9.477146148681639 3:-1.9662338256835947 4:0.8181907162180891 5:2.140197084538522 6:1.854195202861451 7:0.7463378084943287 8:-0.3247738381954239 9:-0.3887663618206234 10:0.7333446388584123 11:0.3815395059994073 12:-1.7262460968012139 13:0.6898165839439765 14:-0.4067283121062361 15:2.487810158382014 
0.2731550256803842 0.0 0.0 1:0.6962730407714847 2:-9.611497497558588 3:-1.8711090087890636 4:0.6849473143805531 5:2.9914532664674165 6:1.8471040104283059 7:0.6175155381625098 8:-0.21524176657032118 9:-0.3595274433001577 10:1.19070556897192 11:0.4388982180787403 12:-1.7330275840652938 13:2.126368642265661 14:-0.7692811794302831 15:2.598544395698519 
0.9484527561286091 0.0 0.0 1:-0.6825439453125002 2:-10.58725891113281 3:-0.46777648925781223 4:1.4734332696907217 5:4.044067938355708 6:3.6351696143299366 7:0.04435489343211529 8:-0.3024376379599527 9:-0.11670674737123854 10:-0.8410962718020034 11:0.11815681082133432 12:-1.023080021685865 13:0.34586454033830666 14:-1.1590798563587632 15:-0.21026165167165928 
1.0 0.088384954084594 0.06644960795337528 1:-0.32558135986328096 2:-10.17930221557617 3:-0.8178733825683595 4:1.6177591369510627 5:6.9722796029847816 6:4.239420854888744 7:-0.06848433650075655 8:-0.09291725472187827 9:-0.5089163251299484 10:-0.8099363362242429 11:-0.5253856497056688 12:-0.4755311909326525 13:1.3596599761683132 14:0.2227662074625382 15:-1.4124534201229315 
1.0 0.09835361418091228 0.0818514823452086 1:-0.16867446899414043 2:-9.987093353271487 3:-2.244740295410158 4:1.0087259160325632 5:7.222767535906175 6:3.7946253605908757 7:0.027345133283760596 8:0.034387904642401206 9:-0.10234520094025444 10:0.39025689514237577 11:-0.5951863947261664 12:0.23029725213647892 13:0.5096393216085728 14:0.12012717525869127 15:-1.51571119772963 
1.0 0.08981203529435444 0.07445287703025384 1:-0.6570449829101564 2:-10.10575485229492 3:-1.9936912536621108 4:2.3949346802639773 5:4.373705181243712 6:2.814911723217815 7:0.2638918598477266 8:0.19675237025144277 9:0.14540505220422467 10:-0.7305862456504448 11:-0.8903957529081473 12:-0.6511028768594993 13:3.977765197328873 14:0.2938806271980872 15:-1.2240938702272193 
1.0 0.0 0.0 1:-0.7737434387207033 2:-10.122425842285159 3:-0.8590637207031259 4:2.505761762998882 5:4.390251323583105 6:1.8436844888469206 7:0.2907011802214303 8:0.1119242700747443 9:0.09318996370951899 10:-0.566718579326977 11:-0.8207573743787533 12:0.1219078814901206 13:2.9518723392364556 14:0.9142778967684084 15:0.24528077642321489 
1.0 0.0 0.0 1:-0.4354141235351565 2:-9.850778961181643 3:-1.7779464721679694 4:1.1498744190693828 5:5.7436789905716825 6:5.251832991407718 7:0.03798993049075718 8:-0.1734220603331649 9:0.007344766746233976 10:0.3002693143399072 11:0.2214425386609735 12:-0.32570269114129174 13:-0.8427269817425491 14:-0.3672569386136185 15:-0.6415177028115945 
1.0 0.0 0.0 1:-0.15102233886718752 2:-10.291096496582032 3:-2.3702667236328128 4:1.355350286243484 5:6.993050187013573 6:3.18879029228352 7:0.20587002011211386 8:-0.3051157251728552 9:0.11336530381055528 10:-0.5304663420305187 11:0.17321822291151495 12:-0.6959193315679295 13:-0.5002526682921424 14:-0.40367534486977946 15:0.15829572366499994 
0.804859673522732 0.0 0.0 1:-0.20790023803710933 2:-10.588238525390626 3:-1.9230834960937506 4:1.3560156999499315 5:6.4032205829303575 6:1.9757008409034458 7:0.18211219557419864 8:-0.239105126555093 9:-0.30539383589976377 10:-0.8077442860958001 11:-0.010834577683398254 12:-0.8484166503109187 13:-0.3980713553947835 14:-0.6560727891862093 15:0.18420943298760928 
1.0 0.0 0.0 1:-0.343231964111328 2:-10.759855651855478 3:-1.6386909484863286 4:1.006614700320061 5:6.97421544035668 6:4.581991611464763 7:-0.1410622547002717 8:0.10110945701469956 9:-0.3063620518297256 10:-0.03358309474436473 11:0.17798734001468625 12:-0.5113761883396395 13:-0.7743145556114295 14:-1.1792975635955 15:0.037667848889933686 
1.0 0.0 0.0 1:-0.3638259887695309 2:-10.386222076416022 3:-0.9600708007812507 4:1.2103009129897688 5:5.44411153875936 6:4.270822499520145 7:0.2398981737904266 8:0.15852022743974395 9:-0.3538851412203808 10:-0.3017689197021738 11:0.055484239382642096 12:-0.9743452704275664 13:0.6169672285819413 14:-0.4176825923289294 15:1.2147287771621786 
1.0 0.0 0.0 1:0.15004119873046878 2:-10.55685882568359 3:-1.1513008117675774 4:1.973044683781918 5:5.741443184183441 6:5.086299311865007 7:0.10437479215679084 8:-0.10903588673259586 9:0.07708553797095251 10:-0.06702529560149255 11:0.7351749493382249 12:0.25981232652207203 13:-0.18906101947708237 14:-0.17171223870649563 15:-0.5964803151927072 
1.0 0.3235813008678284 0.24745992430658326 1:-0.012747955322265959 2:-9.990034484863276 3:-1.1601264953613275 4:1.1158969024306886 5:5.088540822707573 6:6.5301331419608335 7:0.342597215864147 8:-0.02900491592114221 9:-0.01697810489252914 10:-0.8729604991591658 11:0.21625090884646658 12:0.8005759451709885 13:-0.03372669783298019 14:-0.9056112072626958 15:0.6033768229940143 
1.0 0.0 0.0 1:-0.3912849426269534 2:-9.903735351562501 3:-0.3804977416992187 4:0.9947288193012371 5:4.134031566130004 6:4.89097578111338 7:0.06957930648366988 8:-0.07651768529939476 9:0.07268688544311147 10:-0.10943802473442783 11:0.008065927046706585 12:0.5767258961353262 13:0.04498697698961859 14:-0.7846516505964606 15:1.1690839604139367 
1.0 0.0 0.0 1:-0.8257194519042967 2:-10.070449829101564 3:-1.0100837707519537 4:0.6539923015813105 5:4.924015403608788 6:1.5119341462216147 7:-0.07458793629678771 8:0.1105573145240644 9:-0.31257677797933586 10:-1.2557503328918271 11:0.17059638269117744 12:-0.43854838292521053 13:1.897886854418207 14:-0.7504593083912767 15:1.6348347370397665 
1.0 0.0 0.0 1:-0.4962158203124994 2:-9.85372314453125 3:-0.8080665588378917 4:1.0951905518071723 5:6.389657798325627 6:2.111453705711178 7:-0.054234065057773444 8:-0.13476986428810528 9:-0.22432220894906885 10:-0.9640607055156818 11:0.12231605047761081 12:-1.2165075920802204 13:0.6451588644430338 14:-0.8001442706872289 15:3.339956742854032 
0.5250522853487638 0.0 0.0 1:-1.4621726989746096 2:-10.199897766113285 3:-1.0571571350097655 4:2.7089477661874866 5:4.255203010851998 6:2.743931390840444 7:0.23570707622892603 8:-0.6461868999522172 9:-0.28972573923909095 10:-0.6223847131310403 11:0.16714698334342076 12:-0.8320123528145945 13:-0.4971494321065723 14:0.3091323941123332 15:0.6945166681818487 
1.0 0.0 0.0 1:-0.703136444091797 2:-10.191069793701184 3:-1.574948120117187 4:0.9751811715279481 5:4.89435441276236 6:2.8389174525300036 7:0.5237503082985489 8:-0.6935750034103596 9:-0.5022551713336937 10:0.42566913727916056 11:0.1342309529972072 12:-0.5025577011278164 13:-0.8582142911264553 14:-0.5983365261915857 15:0.45836444602129395 
1.0 0.0 0.0 1:-1.0522537231445312 2:-10.070447540283205 3:-1.3474334716796874 4:1.9930468512349777 5:4.957678455795983 6:3.584007034855895 7:0.030441537444338078 8:-0.12297421943301495 9:0.19655335663751022 10:0.6362410373110982 11:0.0629865178805522 12:-0.5063084276709777 13:1.9786913721513615 14:-1.1589075465522989 15:-0.6627401170301163 
1.0 0.0 0.0 1:-0.6678329467773436 2:-10.406816864013669 3:-0.6531234741210936 4:1.8014469818188807 5:4.444013005827442 6:4.04373752975138 7:0.08216187722129172 8:-0.3200698205624093 9:-0.053335463535736455 10:0.6714632111465237 11:0.2873729213467081 12:-0.9950066026898426 13:1.5696074313727666 14:-0.8673935160114036 15:0.771796076291149 
0.4368089307127131 0.0 0.0 1:-0.8384674072265627 2:-10.371513366699222 3:-0.4187438964843754 4:1.7317536415904762 5:4.856902626843668 6:3.0844179565692333 7:0.19890236851643078 8:-0.14230262286739678 9:-0.13722773005971228 10:-0.5691926740032237 11:0.13376449215074349 12:-1.0361695908129922 13:0.1737858660421139 14:-1.0126485998264696 15:1.7037352516133755 
0.7868345258195509 0.0 0.0 1:-1.3297836303710941 2:-9.292781066894536 3:-1.5151268005371104 4:2.905719151699447 5:5.91746769084363 6:2.0596168777503783 7:0.04695282602377049 8:-0.3856137369788125 9:-0.19493139449550273 10:1.285692020552916 11:0.8390887554795656 12:-0.533110766396097 13:2.6664886016125773 14:0.4136819147909656 15:-0.6682359083544966 
0.4962348462071982 0.0 0.0 1:-1.0346015930175787 2:-10.16361236572266 3:-1.4435394287109384 4:2.4902349447429843 5:4.550963551073806 6:1.4560343423532347 7:0.02327048161973314 8:-0.2651156460090831 9:-0.14404055584202372 10:1.0979937897892236 11:0.6132912212395337 12:-1.681305828004646 13:2.9457358874717157 14:-0.7270568155553807 15:2.280946454766388 
0.5462310630370304 0.0 0.0 1:-0.5089653015136717 2:-10.224414825439453 3:-1.5504302978515627 4:0.5595775054412657 5:3.678480874441457 6:2.061221114289948 7:0.5899441783924715 8:-0.34160400205823976 9:-0.29897780855628764 10:0.04342413015733667 11:0.03932307203179687 12:-1.3697801595373351 13:-0.8782795882855754 14:-0.7291458507086149 15:1.6471394354166193 
1.0 0.0 0.0 1:-0.8110107421875 2:-9.638957977294933 3:-1.5935798645019534 4:0.705399459563195 5:3.612595973999165 6:1.784108647128452 7:0.44428429305825023 8:-0.19608990351030023 9:-0.06825098148710552 10:0.7276695250985278 11:0.16496701174648085 12:-0.9116012404267595 13:-0.08929433300180173 14:-1.1436480240262705 15:0.35371025134567285 
0.26420910356229316 0.0 0.0 1:-0.5275978088378905 2:-9.114302062988287 3:-1.78382797241211 4:0.9074961811600961 5:3.599081381198501 6:3.795747903303128 7:0.5493160688962619 8:-0.5346014469511203 9:-0.32307882863657117 10:0.6417264011117793 11:0.9148127500884132 12:-1.011262702919582 13:1.8692504295787709 14:0.874505246046644 15:0.4771357535576535 
0.8647337576041083 0.08709551252123288 0.06904050713058417 1:-0.7335365295410166 2:-9.618363189697273 3:-1.6043670654296878 4:2.3638430070475476 5:4.9866008600796565 6:3.6486502512497836 7:0.0880991980525408 8:-0.5610993693280002 9:-0.4962435118875957 10:1.8091889577670057 11:1.036547786414911 12:-1.2082346796517134 13:4.05498838880407 14:0.23425447885400982 15:1.4753763839437355 
1.0 0.44685576876836536 0.3397856468553025 1:-1.17777786254883 2:-10.32542190551759 3:-1.2209274291992183 4:2.418358937354644 5:4.6564327628183095 6:1.0926825127354818 7:0.1645499492922257 8:-0.03594332085611948 9:-0.23857391966502173 10:2.0245616171739433 11:0.7327478603237103 12:0.4355524709507878 13:5.777163553676183 14:-0.3585337763978332 15:-0.5247233303016697 
0.30245660835186255 0.0 0.0 1:-1.0355827331542977 2:-10.091042327880869 3:-1.3493957519531248 4:1.1297573578188913 5:4.395931011007058 6:1.2669689539587143 7:0.8178518986612682 8:-0.20179563023144123 9:0.04083771793556617 10:-0.5619260287012356 11:0.2525252037869385 12:-0.623415733030257 13:-1.0167439972233856 14:-0.8495903929442098 15:-0.12817274784631627 
1.0 0.1939077963634257 0.11676278662515917 1:-0.472679901123047 2:-9.906676483154303 3:-2.3045631408691416 4:0.8063298098620729 5:3.6579333903378646 6:1.2982419367478015 7:0.016192573491552238 8:-0.2678323921276064 9:0.27127282419483106 10:-0.17311047581016256 11:0.26235182501116305 12:-0.43574220678556574 13:-0.9547372224335888 14:-0.794938825231556 15:-1.2230033663691053 
1.0 0.0 0.0 1:-1.1513008117675776 2:-10.031223297119144 3:-2.2790641784667978 4:0.8499569269892527 5:5.634030308199026 6:3.1691467839264074 7:0.035771187032519636 8:-0.349951217635296 9:0.10178341843594148 10:-0.345662300718378 11:0.26536448194999 12:-0.058292403015193124 13:-0.910991043131019 14:-0.4234690894195739 15:-0.47956535312654847 
1.0 0.0 0.0 1:-0.5717277526855468 2:-9.907659912109382 3:-2.5046173095703126 4:1.4167161805991797 5:5.859401865755229 6:2.640954313389954 7:-0.07160272383549446 8:-0.4723727740541718 9:0.4625821557266143 10:0.21506144792420287 11:0.2609020588258701 12:-0.039124213000415645 13:-0.9584626516987004 14:-0.541207701014129 15:-0.829364441263712 
0.6349939655207577 0.29383357792471254 0.22408540637301638 1:-0.05883941650390632 2:-9.897853088378913 3:-1.904450988769532 4:0.9296587635972552 5:7.963033226903074 6:2.4147559877927423 7:-0.1581821657009204 8:-0.3913750623617502 9:0.1178326395854973 10:-0.22639945559683897 11:1.1644269433134864 12:-0.6929256920766844 13:-0.9481274710595278 14:1.3848962119212123 15:-0.5250399438801592 
1.0 0.22260012534957194 0.17451936011462174 1:-0.8404296875000001 2:-10.314633178710945 3:-0.2892967224121093 4:1.7348915269924325 5:5.523291855645381 6:1.3856557408178947 7:0.08945374366216201 8:-0.4057965044525303 9:-0.3463919506613329 10:0.8253027893189281 11:0.3109123046922639 12:1.2005649262391422 13:1.3495524981638054 14:-0.6076507868690524 15:2.8680477989063173 
0.7638454486286119 0.0 0.0 1:-0.5138687133789067 2:-10.997176361083998 3:-0.9404586791992191 4:1.4824365551560188 5:3.8303904116730125 6:2.8216944241640194 7:0.2084600755061457 8:-0.5029658464879229 9:-0.3161910741192409 10:0.6420168554760497 11:0.8756606808000829 12:0.3274004662574623 13:1.0231303624837549 14:1.2636654460159342 15:0.8976523099336828 
1.0 0.0 0.0 1:-0.25595550537109424 2:-9.905695343017584 3:-1.7455848693847653 4:0.7914601624268112 5:3.512893572176702 6:3.2388978370063732 7:0.15445489307001095 8:-0.3415313609295968 9:0.36621022033604017 10:0.11861024297017442 11:0.6685790573893582 12:0.20952436379861122 13:0.6452879027900978 14:-0.46511404774539705 15:-0.004034033995616894 
1.0 0.0 0.0 1:-0.48248748779296946 2:-9.406537628173833 3:-1.3650856018066402 4:0.8665439052530572 5:4.894163926673949 6:2.821460054765341 7:-0.41704982033090593 8:-0.03859278389452357 9:0.18586496153463458 10:0.39226768338451223 11:0.1223053643559433 12:-0.18562936196143098 13:0.8019957116253865 14:-1.2011470120967744 15:0.5471335932165796 
0.4116475464976449 0.0 0.0 1:-0.9326103210449226 2:-9.444784545898443 3:-1.111094665527344 4:1.13063510643493 5:5.238221163777649 6:0.95840572240064 7:-0.3507406895199251 8:-0.056526947527304215 9:-0.103900117803219 10:-0.461480192792976 11:0.10707025984026582 12:-0.7881699028576877 13:0.13005989035934895 14:-1.2824753184314956 15:-0.09336348846454755 
0.9889241849758399 0.0 0.0 1:-1.39548568725586 2:-9.430073547363282 3:-1.5386627197265632 4:2.361262377781679 5:4.590087576236104 6:2.3262626106990525 7:-0.07328985613209059 8:-0.38520294981778475 9:0.027432547616547665 10:-0.759040516579443 11:0.35315670816440703 12:-0.46707280611913254 13:0.6606134894512271 14:-0.1998561634043505 15:-0.7972487735971442 
1.0 0.0 0.0 1:-1.4866867065429683 2:-10.089080047607426 3:-1.1365905761718758 4:2.9911162473610617 5:3.8175583910307793 6:3.566550175691959 7:0.09547484041376778 8:-0.4058303432284314 9:-0.2847330641609896 10:-0.4050062139630891 11:-0.018297439072623548 12:-0.6275189235172078 13:-0.5856093325368215 14:0.1257400071592171 15:0.060913358656896316 
1.0 0.0 0.0 1:-1.2856521606445317 2:-10.567646026611339 3:-1.8171722412109381 4:1.4228011959348803 5:4.4201328489202165 6:4.215963414791043 7:0.45862496869290315 8:-0.4940779684706919 9:-0.4256414373179678 10:-0.15587708234436987 11:0.5957381225859697 12:0.020987629349585795 13:-2.2936691324934827E-4 14:-0.08687206729142373 15:-0.5878384158188172 
0.9266946307506179 0.0 0.0 1:-0.7041168212890632 2:-9.940019989013681 3:-2.054492950439454 4:1.122461215616205 5:4.263455994596623 6:2.841521224888856 7:0.39718338081227755 8:-0.24347233435485 9:0.01968147190060985 10:-0.20443173668433426 11:0.39683970064108703 12:-0.628591879989204 13:-0.7422977729028494 14:-0.8362718322201853 15:-0.7669411507708305 
0.6283658750418446 0.0 0.0 1:-0.22653274536132811 2:-9.884121704101569 3:-1.5739669799804694 4:0.57977274173114 5:4.227093139700598 6:2.503189764136915 7:0.004008772488746672 8:-0.4233289146123752 9:-0.006526179334075028 10:-0.5705556987660338 11:0.06573714160406557 12:-0.9083308160335503 13:0.9708472907148994 14:-0.63387788478923 15:0.03560221419104313 
1.0 0.0 0.0 1:-0.2941993713378903 2:-10.040048217773446 3:-1.2944778442382812 4:0.4406116419302991 5:3.2853312360681697 6:1.0567197045055228 7:0.06274302734148661 8:-0.48763340736663285 9:0.14618163159297085 10:-0.013876354618117068 11:-0.1953111281423929 12:-0.9731923894145592 13:-0.39169460228566316 14:-0.3924130522041279 15:1.9840468288148116 
1.0 0.0 0.0 1:-0.6109535217285151 2:-9.848818969726572 3:-2.151580047607422 4:0.9529405176750144 5:3.5240012644697325 6:4.62361185363203 7:0.16526392732908385 8:-0.3175538820410468 9:0.48837951365506127 10:-0.017542023965284256 11:0.5056083597918741 12:-1.4511831297603301 13:-1.3058920350276222 14:-0.4277915587756537 15:0.9214544168800227 
1.0 0.25827955925518453 0.1912891680350559 1:-1.215045166015625 2:-9.920406341552741 3:-2.357519531250001 4:1.4890847507305431 5:3.992628514344717 6:4.361505652694033 7:0.3915021806864373 8:-0.30250101223383513 9:0.17159603332767187 10:-1.3929091178648747 11:0.40384364633865166 12:-1.3034028816254728 13:4.31239997274936 14:0.07753236836245511 15:0.7350152581679656 
0.647317926868914 0.056265298774654776 0.05235422230450866 1:-1.5926010131835937 2:-10.796139526367186 3:-1.010085296630859 4:2.0284153831913114 5:2.546684681172478 6:1.827525664923596 7:0.6026419143554558 8:-0.3148693089538942 9:-0.11313518302618332 10:-0.5842565121314437 11:0.6839902591843792 12:-0.7757149908545867 13:1.3798277005423463 14:1.3341745109333358 15:-0.31477319676893367 
0.6893798887809187 0.0 0.0 1:2.071163940429688 2:-9.651703643798822 3:-1.3170333862304693 4:2.7166774291917686 5:3.6544299888069234 6:2.080370624966457 7:0.4474769969341127 8:-0.3168817308940135 9:-0.38920136741852535 10:-0.6075893705628278 11:-0.004283695323380823 12:0.13989164521274824 13:0.2135896309446241 14:-0.9435062673125287 15:-0.9025544680205724 
0.5352491416017287 0.0 0.0 1:3.2205047607421897 2:-9.507547760009768 3:-1.7338150024414065 4:0.5405765862204135 5:3.8826217609288847 6:1.3857505294284798 7:-0.2510847877077159 8:-0.1712654458625386 9:-0.2218571808401727 10:-0.16198939898816503 11:-0.17556265781111707 12:-0.31770176815389845 13:-0.8732411132823771 14:-0.9705753255760631 15:-0.5803941215458127 
1.0 0.6184283313456566 0.46710569199315277 1:1.9829048156738291 2:-9.767424774169926 3:-1.1807189941406255 4:2.7763605828693856 5:2.413182223040491 6:2.1743198450980694 7:0.3033634630928837 8:0.017507817109277693 9:0.025093738163102584 10:0.8780752120402332 11:1.2524756237703796 12:-2.6818832043929794 13:0.3909921375944678 14:1.7215718348028493 15:9.31147917286929 
0.5298240281470676 0.1717158184152441 0.11625521363773975 1:2.5310958862304704 2:-10.284233093261726 3:-1.7573516845703132 4:2.7002118684328176 5:3.444406825944321 6:2.7968821217212843 7:0.27025841366371284 8:-0.052543595333296146 9:-0.32679971158692767 10:0.5282742046149995 11:1.001480518489225 12:-1.3932992727440443 13:-0.528891216392804 14:1.6130718993942401 15:2.621742956320019 
0.20613917667945178 0.0 0.0 1:3.043003845214846 2:-9.489894866943363 3:-1.3513572692871105 4:0.7949912139470674 5:5.157545539338027 6:2.672189195907561 7:-0.0860921764356776 8:-0.18869827412442014 9:-0.5628054598065392 10:0.30723077821074846 11:0.1585874859713938 12:-0.27631530438076307 13:0.09483119077499652 14:-1.0243173416110591 15:-0.5527901114508711 
0.9516901811261541 0.30207411679954527 0.16008136181073568 1:3.3009178161621113 2:-9.225116729736326 3:-1.497476959228517 4:0.5878358038485756 5:4.3367166433454205 6:1.1181589753896717 7:0.5276390188943966 8:-0.581939390692511 9:-0.3963320892518338 10:1.2879407533965612 11:0.36019903158706684 12:-0.02265994435267903 13:3.3761677571853363 14:-0.4033908134228144 15:-1.139456869792767 
0.0 0.08654506198552321 0.0 1:3.5235298156738297 2:-9.114302062988298 3:-0.42953033447265654 4:0.733442388974946 5:3.849973804827374 6:2.180985719293825 7:-0.03465767637121999 8:-0.24411852995808295 9:-0.5083360610796128 10:0.503568358680509 11:0.6527062653738039 12:-1.4817645349016824 13:0.22435045614817523 14:-0.5832070766978021 15:3.392549948652955 
0.06521795412991294 0.0 0.0 1:2.915515136718752 2:-9.228057861328134 3:-1.2434837341308602 4:0.7294805210689075 5:4.225547657231816 6:1.089509578642321 7:0.21796000625685652 8:-0.15016810893837057 9:-0.5051491640781768 10:1.0458685959928393 11:0.2153383462043274 12:0.6801161790008795 13:1.0326968946199602 14:-0.9509374300415492 15:0.2540288479945808 
0.471883795470718 0.0 0.0 1:-1.8152099609375003 2:-9.563447570800786 3:-2.1211776733398446 4:2.3478428962500795 5:5.599865123301312 6:2.8936175366281534 7:-0.5102684548503885 8:-0.5443378229037212 9:0.6395597082529371 10:-0.661703275956746 11:0.1416916337548986 12:-1.4698693507828495 13:-0.5561738675092659 14:-0.16108179349775878 15:1.1557978263484783 
0.34162888007093695 0.0 0.0 1:-1.6269233703613282 2:-9.824304199218751 3:-2.4163581848144537 4:1.6120269828353795 5:6.14139524540864 6:2.30549322349194 7:-0.5070642829653315 8:-0.3881394187588554 9:0.7408092150559833 10:-0.5422216424034179 11:0.18149162912972563 12:-0.6269122907475503 13:-0.3978255961811356 14:-0.49338758126790794 15:-0.46695899978456745 
1.0 0.0 0.0 1:-1.2993812561035165 2:-9.946885681152342 3:-2.142752075195313 4:1.1203073621465602 5:5.010718947763064 6:1.6882886842219182 7:-0.24327098443075557 8:-0.10456666123739475 9:0.3786555225251922 10:-0.07482714409753306 11:0.013592928846001974 12:0.26051319967251024 13:-0.694794822655817 14:-1.0168335318385324 15:0.30144551111815354 
1.0 0.0 0.0 1:-1.3023239135742197 2:-9.90471572875976 3:-1.3631225585937496 4:2.2644487833348115 5:6.215148601063393 6:5.814983071023595 7:-0.2158767060998074 8:-0.28651766319027294 9:0.603926861836657 10:-0.8696068429429198 11:0.30410663971054885 12:-0.3416728731342996 13:0.6455049194599374 14:-0.6048538878669466 15:0.32593206957859433 
1.0 0.13264048802001743 0.0980231687868364 1:-1.8750312805175788 2:-9.845877075195304 3:-0.9728172302246089 4:2.2613694024150033 5:5.068337286878366 6:6.163882311933553 7:-0.2947432634428994 8:-0.30684639577540473 9:0.6151126193396169 10:-0.1573018471853662 11:0.6240820858563947 12:-0.8092968146328994 13:-0.470445081095979 14:0.5954361748141128 15:0.36472961371322077 
1.0 0.21434114680385777 0.16822570811550455 1:-1.72793197631836 2:-10.264621734619139 3:-0.5834953308105464 4:2.410564273942147 5:3.1298228454281443 6:2.1008150276372914 7:-0.07461596030038477 8:-0.31780246722115024 9:-0.0739199946815 10:-0.004344823869708291 11:0.8093352087631214 12:-0.6771452725972547 13:-1.0561834260291778 14:1.8800621397748172 15:0.7842021591317341 
1.0 0.0 0.0 1:-1.2474067687988282 2:-10.056720733642583 3:-1.1326690673828126 4:2.137267902853784 5:5.287406457585193 6:1.9365941811446128 7:0.07990841079017597 8:-0.5147342745956318 9:-0.16715922181127488 10:-0.7537087583021566 11:0.5360250880058728 12:0.2400791484026706 13:-0.0017740820509780553 14:-0.31344332294956556 15:1.1566797054129774 
0.9699459265493375 0.3183409470843174 0.24399861394645847 1:-1.2493667602539062 2:-9.214328765869144 3:-1.84168930053711 4:0.9550527285668068 5:6.5804266507708435 6:1.459592308767025 7:-0.3475457407328636 8:-0.4363512777440229 9:0.5045146495549238 10:-0.4545272402678121 11:0.24162948805365886 12:-1.8408120489273345 13:-0.7866312506218366 14:-0.9893332250603715 15:3.484238391341412 
1.0 0.0 0.0 1:-0.9708587646484386 2:-9.576194000244136 3:-2.0309577941894528 4:1.4369564806483717 5:5.996099331171104 6:2.4110446265496988 7:-0.4642088722823632 8:-0.584104555746292 9:0.5124713889055222 10:-0.2339350623975753 11:0.22064863104446028 12:-0.7278645371544705 13:-0.7764861055801416 14:-0.2819848411285527 15:1.2929652832252914 
0.9806485480632189 0.0 0.0 1:-0.8061073303222672 2:-9.936097717285158 3:-2.330061340332031 4:1.3830777329969028 5:6.5451786877098375 6:2.019787096369545 7:-0.14515406305706688 8:-0.6578799771918122 9:0.4372788379001837 10:0.34595725825173407 11:0.3140089829029246 12:-0.8792959357566699 13:-0.7582687697119754 14:-0.3368338620529639 15:1.1226480639895573 
0.4389092608123189 0.04001367472588645 0.03123561313670202 1:-1.661248016357423 2:-9.66151275634766 3:-1.8122695922851566 4:2.8364452969393463 5:7.12027858071729 6:2.216395981630777 7:-0.16332358371267153 8:-0.615360276682309 9:0.4891995636128744 10:-0.4520567452668866 11:0.37113858451600923 12:-0.5514628650258911 13:0.0753540942877545 14:-0.031993724022023204 15:-0.6418921309755208 
1.0 0.21761360208186986 0.16291870986139825 1:-2.1260826110839846 2:-9.706623077392583 3:-2.1505981445312514 4:2.9720629572280446 5:5.996178904289299 6:5.154277634071187 7:-0.18835586699743873 8:-0.3561943164137508 9:0.5992498383053407 10:-0.7209964446070144 11:0.3769115013869813 12:-1.9226971772121328 13:-0.4201222352766103 14:0.400180402058982 15:3.957180468626242 
1.0 0.3796792499247656 0.2869324190955252 1:-1.3670478820800787 2:-10.102810668945313 3:-1.9005287170410168 4:2.3154817283450413 5:4.776976504051144 6:5.153834888303539 7:-0.2434907121895045 8:-0.39455527050144035 9:0.6601679335592691 10:-1.175007045825382 11:0.9826233750886666 12:-2.235863697261832 13:2.262832373096896 14:1.3363126885057053 15:5.058550764925024 
1.0 0.0 0.0 1:-1.8858192443847668 2:-9.174122619628912 3:-2.0280174255371093 4:1.943535743827815 5:5.395040060628701 6:3.894270473888028 7:-0.3646515267975256 8:-0.5186650516268649 9:0.7368051078951195 10:-1.1477379974851702 11:0.19816969696572473 12:-0.3894204917118961 13:1.3692294081607896 14:-0.39762594417638675 15:-0.8770394455607697 
-0.5852438255691907 0.0 0.0 1:0.6590065002441413 2:-9.989054870605479 3:-1.7848106384277347 4:1.081165536220071 5:8.017266741211113 6:1.641896994790881 7:-0.10613099796128024 8:0.22924617791966453 9:-0.1530699783663744 10:0.5526821789804441 11:-0.5792782384734204 12:0.10336674305784686 13:0.6221130069504812 14:0.4998358524396659 15:-1.4332425146705905 
-1.0 0.0 0.0 1:0.3677490234375004 2:-10.122426605224618 3:-1.5268959045410169 4:1.66101305469871 5:5.169619995594861 6:2.480208267790154 7:-0.058008614962402255 8:-0.1676207605543991 9:0.026928164122723773 10:-0.11938157870152181 11:0.061699345984587976 12:0.26780402354202537 13:-0.03637622728752707 14:-0.5361966997321653 15:-0.5072139226123721 
-1.0 0.0017912504433450778 0.002938831700550096 1:0.2775291442871096 2:-11.007965850830084 3:-1.327820587158204 4:1.7305417407135288 5:2.385293571894881 6:2.713704775238297 7:-0.5353022140137698 8:0.1872580610440052 9:-0.11684752243041426 10:0.0577101361226073 11:-0.3686344447669035 12:-0.17205049953249332 13:-0.273390849092686 14:-0.04037931301648898 15:-0.7183366814422188 
-1.0 0.0 0.0 1:0.14611968994140614 2:-10.545091247558606 3:-1.1866043090820317 4:1.0342361524910682 5:2.7126706191082732 6:2.1775904105533868 7:-0.2557204249004694 8:0.2824788497226606 9:-0.1065779272117304 10:0.8995346281379751 11:0.3079068771887115 12:-1.0067674553518713 13:3.260326677458333 14:-0.938673830150185 15:0.6721983657891393 
-1.0 0.0 0.0 1:0.13729400634765576 2:-9.87039413452149 3:-1.9838844299316425 4:1.211442496397069 5:3.6556996649428255 6:2.926288922696261 7:0.3511606383366226 8:0.031503888982596435 9:-0.1272449482795034 10:0.28831848421976336 11:0.2883630037805699 12:-0.5891088338657284 13:0.6110556831601546 14:-0.5260270467823976 15:-0.45117595115496034 
-1.0 0.0 0.0 1:0.29616165161132835 2:-9.189812469482423 3:-2.165307617187501 4:1.3232647154451131 5:5.004652303421767 6:2.828151895161721 7:0.044825535603929954 8:0.357043960532561 9:-0.07829772153741987 10:0.020284790490491776 11:-0.44527982516428244 12:-0.263610069659648 13:-0.44502358658434105 14:0.22769524591318377 15:-0.6579455729492957 
-1.0 0.0 0.0 1:0.11964111328125034 2:-9.535005950927735 3:-3.141070556640625 4:0.7974794717179625 5:6.185733728303481 6:5.812236933493984 7:-0.1555717285292838 8:0.5120589557964729 9:0.19001067453498646 10:-0.5642870155684456 11:-0.6924928755618863 12:-0.518575281694493 13:-0.1605263090985806 14:-0.36861831838590553 15:-0.07946404584599721 
-1.0 0.0 0.0 1:0.6423362731933598 2:-10.236180877685554 3:-2.5016769409179695 4:1.232897503959832 5:4.8819237965689055 6:2.1302667769347314 7:-0.17216881504154605 8:-0.14225455020026978 9:-0.09565675532038834 10:0.31440080103431933 11:-0.8530088304308192 12:-0.8990146597358956 13:-0.4262388864909894 14:-0.2086889379550665 15:1.318713247462797 
-1.0 0.0 0.0 1:0.4922927856445309 2:-10.296002960205087 3:-1.2111206054687513 4:1.1277290135133085 5:5.290124653612173 6:4.14355493639596 7:-0.16250229569796357 8:0.24019281772979006 9:-0.26505288304890057 10:0.27582043371354303 11:-0.40560776852100233 12:-0.7483616598801245 13:-0.46345526285438604 14:-0.1477329426700142 15:0.9394061337849362 
-1.0 0.0 0.0 1:0.021573638916015322 2:-9.655628967285157 3:-1.311148071289063 4:0.6588808451377555 5:3.79973894872471 6:3.5130818473966796 7:-0.016476479292294777 8:0.30008750926696776 9:0.04027372827100709 10:0.09293279224234752 11:-0.252129706517426 12:-0.06508538711573524 13:-1.2082810685083483 14:-0.6842935186345134 15:-0.1275171326806355 
-0.04818124608510826 0.0 0.0 1:0.5648605346679691 2:-10.001802825927737 3:-2.4624496459960943 4:1.520012977023145 5:4.394738682971233 6:2.130851774427576 7:-0.0540580821694036 8:0.15537678848847522 9:0.2395432894157097 10:1.1587699237140452 11:-0.49578827647770846 12:-0.21427558145416062 13:0.3713074573602207 14:-0.32882553835029754 15:-0.4868741679023711 
-1.0 0.04349472544343249 0.038180702028136136 1:1.1630661010742187 2:-10.117520904541015 3:-2.0917587280273455 4:1.8337772535416303 5:4.827836602862805 6:1.9807375635835367 7:0.10748130479539324 8:-0.0043178250670108 9:0.3358762964264092 10:0.24569416466717717 11:-0.25349755073929403 12:-0.04531406930412014 13:-1.4249894473888447 14:-0.6918982483087909 15:-0.39404319130760035 
-1.0 0.0 0.0024188497677469093 1:1.0973648071289062 2:-9.87235488891601 3:-2.037821197509767 4:1.343131461387966 5:4.046702780301547 6:1.0774118882900823 7:0.21703357584680938 8:-0.037116898900827804 9:0.11310740402691416 10:0.24781207236040728 11:-0.5013593794421534 12:0.20999217771235526 13:-0.7167919459595988 14:-0.4484106410905644 15:0.5172143360254647 
-0.04551523685249626 0.0 0.0 1:1.2111228942871102 2:-10.499980163574214 3:-1.1885658264160164 4:1.1140688839898218 5:5.2703022080729625 6:3.8376680422405522 7:0.27946550346286625 8:-0.49333037576714084 9:-0.205614192532511 10:1.1611257772264172 11:-0.5623781985959322 12:0.8717009213668754 13:0.15105387178288648 14:-0.6079551201187573 15:0.476694465931199 
-1.0 0.0 0.0 1:0.9394775390625005 2:-10.330324554443358 3:-0.4991584777832031 4:1.980028446144426 5:4.777099724423024 6:3.890761815483567 7:-0.028052574493009845 8:-0.28243865427490117 9:-0.32476957401665685 10:0.9206098197239772 11:-0.7516662696812125 12:0.3367948940465576 13:0.8629752011364193 14:-0.1674880213447036 15:-0.4300214704623562 
-1.0 0.08074482824510673 0.0615703656904586 1:0.24810791015625006 2:-9.241786956787111 3:-1.378815460205078 4:2.326222108374354 5:1.5412555004208088 6:3.29995987039234 7:-0.11671870099907257 8:0.20534272652112398 9:-0.21853788543176428 10:0.10838482580672547 11:-0.4204673309255342 12:0.30883948427690117 13:3.3647398547025658 14:0.471442545232563 15:-0.3205810011499008 
-0.33517549873442193 0.29662024052393554 0.2144381713558014 1:0.2932182312011723 2:-10.261679840087886 3:-2.5713050842285163 4:1.7127755973552161 5:7.224036712722755 6:2.072659340232493 7:-0.1517119357081209 8:0.03417599061574762 9:-0.15526995208799696 10:-1.2014070824265604 11:-2.433504174214145 12:1.2545151567237505 13:3.6196282572512275 14:7.362332644421356 15:1.03700439618281 
-0.7617934332625294 0.20025865038737806 0.14325176154180036 1:2.0956809997558596 2:-9.37025299072266 3:-1.7318542480468757 4:2.292286884562928 5:8.809120498851435 6:2.7457824773527735 7:0.007477361516236606 8:0.46049400183640576 9:0.4953854321700204 10:0.45386082719519727 11:-0.42823747121950456 12:0.07296975339609842 13:-1.3802039413935425 14:-0.9436727680236582 15:-0.5205253817334038 
-1.0 0.0 0.0 1:0.19809570312500038 2:-9.775270080566404 3:-2.9959312438964862 4:1.2063185729179529 5:5.738691888467853 6:2.7632405319315185 7:0.13268017892513642 8:0.21956282516804643 9:0.3730564939345939 10:-0.678316945794862 11:-0.38641266610061636 12:-0.8826584270766824 13:-0.055805821425533225 14:-0.45954462751764186 15:1.4927674091055734 
-1.0 0.021560293764160257 0.016082696842613802 1:-0.23437728881835979 2:-9.959633636474612 3:-2.0907783508300795 4:0.6173161139542948 5:4.771262808923484 6:2.4517077781463765 7:0.2033756755725179 8:0.01248102540924159 9:0.13249762280928656 10:-1.5753699453225305 11:-0.832733723291516 12:-0.8547287224242033 13:4.873061434971264 14:0.9648486145527081 15:-0.40687826658552373 
-0.12835690547536385 0.11847925512721848 0.0854278191535608 1:-0.3059661865234377 2:-9.384964752197266 3:-3.048887634277347 4:0.782338867816143 5:8.886467051237682 6:6.779253327448414 7:-0.3224859352490471 8:0.7127018369142648 9:-0.2795314934769302 10:-1.0568810609506696 11:-1.1032943270266058 12:-1.9477149689345377 13:1.9548499579417251 14:1.7613996982615023 15:4.433790658927878 
-0.2524755076858835 0.22259393891299878 0.16072373632965056 1:-0.7139236450195319 2:-10.238141632080078 3:-3.9864028930664093 4:0.7621070384536879 5:12.487185740314313 6:5.6755811151326885 7:-0.0978695725719341 8:0.7377191826874999 9:-0.37106642048904825 10:-0.3403846035167458 11:-0.5310571942138902 12:-1.6599069073748114 13:0.05756308513334144 14:-0.5654698712246937 15:3.4278932543431733 
-0.1942832180246148 0.10669825935457868 0.07642724728819844 1:-0.6354728698730482 2:-10.347975921630866 3:-3.9550224304199233 4:0.971490374749411 5:10.031241457384922 6:2.172266924643772 7:0.10047458123121979 8:0.4420608674869053 9:-0.21311592839458518 10:0.7525134004292133 11:-0.6765216052229559 12:-0.2769458568886834 13:0.6288379776591436 14:-0.29154651247322716 15:-0.5935369950035632 
-1.0 0.11087545408683983 0.08036905927917223 1:0.4236465454101569 2:-10.23618164062501 3:-2.3486938476562513 4:1.1496365054254436 5:3.947442370243393 6:1.1826608357485393 7:0.2296220627589329 8:0.24009714802062318 9:-0.2358660143994357 10:1.4959665783067855 11:-0.4762390216189388 12:-0.07464266395708094 13:3.608513087248899 14:-0.4263556690025402 15:-1.4875071848751753 
-0.97079559550311 0.12145612427212149 0.08804600627574587 1:0.2216300964355476 2:-9.184908294677733 3:-1.4925743103027347 4:1.0931148648698603 5:3.556922636629884 6:1.495983052958615 7:-0.06916857833507264 8:-0.26729181880227626 9:-0.3973585181273343 10:2.0111916352208055 11:-0.033293011104930076 12:0.3895272990012265 13:5.981711442743175 14:-0.6478931796184806 15:1.6028670817716937 
-1.0 0.0 0.0 1:-0.5334815979003913 2:-9.298666381835933 3:-1.774024200439453 4:0.9844216068246189 5:4.767740731532667 6:2.308028638909451 7:-0.1440853624946914 8:-0.27492696919858917 9:0.7069847668452851 10:-1.0764298814609843 11:-0.030289991941249664 12:-0.38515873765596653 13:1.5804369013534132 14:-0.7885755330610077 15:1.7701348920092352 
-0.0 0.12254922871808505 0.08863001371930307 1:-0.22261047363281264 2:-10.227355194091787 3:-3.8128265380859387 4:1.9390762412222124 5:9.073313089168508 6:7.210792930130848 7:-0.053743441664518526 8:0.42422806266361873 9:-0.33060942339550603 10:1.3766756290081246 11:-0.8995469247715439 12:0.6785125130365566 13:2.2594744321030884 14:1.2204698921110793 15:0.13232894914769205 
-0.027201546958914812 0.08534814629648386 0.06168006869604553 1:-0.2991035461425785 2:-10.958930969238278 3:-4.560092163085939 4:2.1361344313126773 5:6.757355494273374 6:2.9557595813786626 7:0.2677201522092249 8:0.3170170362728033 9:-0.36767582148034283 10:1.241175362956537 11:-0.3045572718219658 12:-0.4337119675944038 13:1.70030878278133 14:-0.7935492281952483 15:-0.09855486932760897 
-0.14764875155957918 0.07072322024773747 0.050761847454945636 1:-1.0247940063476573 2:-10.895188140869145 3:-3.0822288513183604 4:1.5383343855827143 5:5.650341485475095 6:3.6937203967588728 7:0.47254487144171664 8:0.4726336875681037 9:0.5299436748904071 10:-2.1939219738422024 11:-0.7730716840809801 12:-0.426842011242283 13:6.642157998886578 14:-0.6322595914815857 15:0.04240919787178338 
-0.24750529592801201 0.1537219548844242 0.11009525690504048 1:-1.1307037353515628 2:-9.596786499023434 3:-2.7036933898925795 4:1.5558162980387005 5:3.4297465655021155 6:2.6663503657066006 7:0.41381054289549113 8:0.2544896395014536 9:0.6345083232409902 10:-2.1849344643729744 11:-0.8879151753507978 12:-0.7969847157250219 13:5.488596091926232 14:0.4627024369722787 15:2.3160048526266848 
-0.0 0.19978224556283847 0.14375461527831884 1:-0.8610237121582026 2:-9.073113250732424 3:-2.8125480651855477 4:0.7818992187146777 5:5.201996490230689 6:0.939137822489136 7:0.12949500441166029 8:-0.03616168976943666 9:0.05848756564327882 10:-0.6357847460692373 11:-1.585235862377164 12:-0.4628091194570982 13:-0.28356558953028627 14:2.9546197832426446 15:-0.6535237549616181 
-1.0 0.0 0.0 1:-0.29027633666992153 2:-9.977286529541011 3:-3.553928375244143 4:1.1228695366409378 5:4.16795617066032 6:2.5006833791238066 7:0.0369196782264074 8:-0.2434248696575572 9:-0.11988233454162922 10:0.17982836769581267 11:0.1406397425133262 12:-0.4020954367652982 13:0.09514062220174707 14:-0.4047715342007622 15:-0.6592098450062668 
-0.9031853905496663 0.0 0.0 1:-1.5308189392089844 2:-9.17608261108398 3:-1.2650581359863284 4:2.0899173820362207 5:3.601707708413585 6:1.717237229768072 7:0.4720844504816139 8:-0.06591351776732189 9:0.11850012447058415 10:-0.5425195083561376 11:-0.7704206328360885 12:-0.2549159271043732 13:0.05691498963211654 14:-0.4109897074571607 15:-0.9484025637296121 
-0.0 0.14427214817411343 0.10414236764697068 1:-1.616135406494141 2:-9.403595733642575 3:0.3422523498535158 4:2.4165100438630924 5:3.7210828331409496 6:6.95279415487953 7:0.0452345203814557 8:0.06463291502701336 9:0.1343484226603341 10:-0.3335416615041333 11:-0.5981674286822163 12:1.1201499628561453 13:-0.6145727319836374 14:-0.4328651107228869 15:1.0622650030797822 
-0.21815780655735387 0.24027376988084773 0.17344313821560747 1:-1.0336204528808604 2:-9.888043975830072 3:1.3856803894042977 4:2.608447826194462 5:2.8661579975922105 6:6.652584259083385 7:-0.29438681820631274 8:0.059183171019472826 9:-0.3222881049028242 10:1.824081501843451 11:-0.5242845928112049 12:0.27950803077305314 13:6.175416747818774 14:-0.03768719593120693 15:-0.40539502336612726 
-0.47166373126272015 0.22321789038099252 0.16115371625126093 1:-1.1159980773925793 2:-9.928252410888671 3:0.257914733886719 4:2.3335889079252965 5:5.600371449684584 6:4.097026236683598 7:0.035069530201190795 8:-0.39198804465961423 9:-0.3893365295677028 10:2.378716605224254 11:0.2443491199677713 12:0.14494976154932432 13:8.94855700891095 14:-0.3341733973224615 15:-1.0093507435284512 
-0.2564712842390441 0.15543762152368318 0.11074361602011859 1:-1.6435951232910164 2:-10.001802825927742 3:-0.875733184814453 4:1.2527038082078799 5:11.946993362863477 6:2.8683846656110834 7:0.49263547826598114 8:-0.0664011584998079 9:-0.4238468731557148 10:-0.6327585041221475 11:-0.5528336716502201 12:-0.2734548805333217 13:-0.5787832035930798 14:0.407290337390997 15:-0.3565071032395732 
-0.0 0.011569048654657871 0.008643807018458804 1:-1.268979644775391 2:-10.039068603515634 3:-1.9946716308593757 4:2.320751226117721 5:10.268349065035626 6:2.6744644766114662 7:0.4976149628906701 8:0.12697095928355615 9:-0.25152021014608555 10:0.45177843486433905 11:-1.002209447973881 12:0.24280236038653302 13:1.0298554207614765 14:1.4887666816710876 15:-0.9113552346249886 
-1.0 0.0 0.0 1:-0.944379425048829 2:-9.795863342285159 3:-1.8769927978515633 4:1.778891018877626 5:5.166485214724674 6:1.511074524568394 7:0.2679903062011719 8:-0.02740683019910992 9:0.014393626892195234 10:0.6623981280844636 11:-0.6216426963793884 12:-0.7308280794690708 13:1.9528451671932043 14:1.2482045493912377 15:0.012595664227218674 
-0.5950474914181048 0.0 0.0 1:-0.8384674072265632 2:-9.802727508544924 3:-2.065280914306641 4:0.7576992960553628 5:5.601868193467986 6:2.301475729767117 7:-0.04688590800893447 8:0.2518050979949767 9:-0.14905480229266288 10:0.5284169192272992 11:-0.4485528217714999 12:-0.5841650558116486 13:2.0784143180099672 14:0.13384422908105104 15:-1.156628010488456 
-0.34533040339434873 0.29471698306407923 0.21294466775463844 1:-1.4121589660644538 2:-10.203820037841803 3:-0.00686569213867263 4:1.6982522329984935 5:10.218823288671615 6:4.834534626278909 7:0.18991947787283145 8:0.23925985323051932 9:-0.3744309272613696 10:1.0871422848131758 11:-2.7521297135765206 12:0.8307094461434127 13:1.1183264765722205 14:9.58297538892619 15:1.030098973707409 
-0.21499667942087464 0.21997381923544873 0.15835496538498486 1:-0.9992988586425791 2:-10.850077819824223 3:-1.1434555053710938 4:1.498734794963967 5:14.28671369434104 6:5.666786065476483 7:0.42079057551190474 8:0.10562062415564145 9:-0.5083788060632781 10:0.546170477325533 11:-1.4553280138434952 12:0.7717006097198722 13:0.30312542978085516 14:2.3228877818904263 15:-0.09744152547928042 
-0.8543027943490142 0.018040625189283357 0.013115197339291302 1:-0.5874206542968754 2:-10.306789398193358 3:-1.1895454406738275 4:1.1045168619276962 5:8.806348287963171 6:6.278781690832114 7:0.5191888998498003 8:-0.019739173774936728 9:-0.39652367952579626 10:0.13952924505456732 11:-0.3335376495604113 12:0.5442531476548924 13:0.689307401398431 14:-0.9701371023669523 15:-0.8963244735203315 
-0.0 0.14239489728042007 0.1026705412333275 1:-0.2981239318847656 2:-10.391126251220708 3:-0.9875289916992175 4:1.2453920262696905 5:7.869729210279803 6:9.352740979499654 7:0.30577737746073713 8:0.03785880576163472 9:-0.28311205994603167 10:0.6538349740693445 11:-0.6562193082864002 12:1.0294515697802087 13:0.35652368902439147 14:0.4656035261442778 15:0.3898725361607997 
-0.0 0.028764277039098663 0.020448967102333158 1:-0.67469711303711 2:-10.427410888671883 3:-0.4491447448730462 4:1.8211342854535897 5:6.893354751090577 6:9.000044298993313 7:0.02994347806941264 8:0.12606793984393447 9:-0.38765277239062623 10:0.8298466312957803 11:-1.0889860520551449 12:0.6804147900470049 13:0.3322123674650868 14:1.0362045018129835 15:-0.05520973701208124 
-0.36571569948194305 0.0 0.0 1:-0.560942077636719 2:-10.05279693603516 3:-1.246424102783203 4:2.88377843317343 5:2.7436452875123547 6:3.959309343650824 7:-0.19794353509027543 8:-0.18010523398488834 9:0.3399352596653566 10:0.9369832199305294 11:-0.32613908208585035 12:1.2042749716627497 13:1.0800523210045365 14:1.3998203435280638 15:1.7085139985088011 
-0.2480887369339593 0.23137710376250142 0.16776500372372702 1:-0.6462593078613292 2:-9.267284393310552 3:-1.058136749267578 4:1.1367144243296954 5:4.391427731231713 6:0.9514138075168015 7:0.09068831731844258 8:0.17456670530017537 9:-0.1388619224856369 10:1.755070300983826 11:-0.6412113416477774 12:1.958208434733747 13:3.0401198210683793 14:1.216122845652347 15:5.828204688470664 
-0.7485956345799368 0.0 0.0 1:-0.7551139831542975 2:-9.031924438476562 3:-1.3082069396972662 4:0.5652310643874806 5:3.7053062107553556 6:2.1106366637459772 7:0.3107095611791606 8:0.03333738185583974 9:-0.06050854055337758 10:0.5617347649624952 11:-0.013908715891147033 12:0.8120219936337069 13:0.8766490823357471 14:-0.08372023780747732 15:1.7495539592285099 
-1.0 0.0 0.0 1:-0.9777244567871097 2:-9.348678588867188 3:-0.6864646911621091 4:1.0600051449442993 5:3.9804998052073506 6:3.3745402813487524 7:-0.2013021568628084 8:-0.3548595659092665 9:-0.18734886454172792 10:-0.38223302642944723 11:-0.18237894266256338 12:0.4316083139997658 13:1.4488649080487381 14:-0.6268687431810075 15:-0.6844220947269665 
-0.2321285456327118 0.0 0.0 1:-1.2356369018554691 2:-10.070448303222651 3:-0.10395050048828117 4:1.7934264097851702 5:4.950330219974239 6:7.527911402529577 7:-0.15191152329047009 8:-0.021071574789621822 9:-0.04882464032005082 10:-0.16969467680658537 11:-0.09807788090903065 12:0.8153586345704416 13:-0.23802269815604032 14:-0.9526926995074445 15:1.1352363862435826 
-0.0 0.034869646258044944 0.025421052692859335 1:-1.274865722656251 2:-9.903734588623056 3:-2.3673271179199213 4:3.4792558439634775 5:5.139018986892808 6:6.275822653232003 7:0.112762553367109 8:0.481696817727278 9:0.3500561192122481 10:0.5064600767194584 11:-0.1510445392998388 12:-1.4920425809165765 13:-0.6620157696198479 14:-0.32982562427899886 15:4.541980339291273 
-1.0 0.1460294887122477 0.10518613215435232 1:-1.3964660644531257 2:-10.294040679931637 3:-2.085875701904296 4:3.2504308794532015 5:5.069110635758263 6:6.136725359723766 7:0.008882557681781726 8:0.415878630232694 9:0.33656734814868927 10:0.42447515011957115 11:0.4336823912490424 12:-2.0585240751741303 13:-0.09147239462037812 14:0.04418469837263615 15:5.3930832809631095 
-0.28258171606719806 0.23385451502459234 0.168992341539044 1:-1.514145660400391 2:-10.448004150390615 3:-2.1407936096191396 4:1.4609260380145872 5:12.526355922254723 6:9.435332043503275 7:-0.15458173848183993 8:0.5440998017634692 9:-0.6617703663486157 10:-0.4510855822538894 11:-1.667022274973918 12:-1.388038680212573 13:0.18180245082707383 14:3.630566015297511 15:3.215205425634422 
-0.3871127972238199 0.33186270189259953 0.2399301344021137 1:-1.0081237792968758 2:-11.53065872192382 3:-4.466929626464844 4:0.8155011414177726 5:23.404879097265102 6:24.938725225536636 7:0.28050947751196953 8:0.7987353543203586 9:0.3971944719968522 10:-0.18904370388911784 11:-1.5153052033517256 12:-1.524138036081222 13:-0.02598204661888292 14:2.1899621397503677 15:1.1707494209964673 
-0.38699820223522613 0.332355665814177 0.24031937149031085 1:-1.6180961608886737 2:-10.992272949218746 3:-2.7635131835937505 4:0.9663397380261447 5:17.20486830778887 6:26.99957803721543 7:0.4441390884530726 8:0.7856643556801174 9:0.314191144965474 10:0.042196039657735045 11:-2.084766570123677 12:-2.05590457094846 13:-1.2747725704474973 14:6.213269649819532 15:3.0003246200171363 
-1.0 0.0 0.0 1:-1.8975860595703136 2:-10.149881744384764 3:-0.9453598022460948 4:1.839122367850503 5:4.375921235961725 6:3.685468655240262 7:0.31675322969720493 8:0.029298002975361663 9:-0.2838201061296509 10:-0.6989553102046039 11:0.5604126057975555 12:-0.42461219579074666 13:1.2972112036684402 14:0.15660265040948199 15:-0.9931202410450432 
-0.9608123610454029 0.03325386143800258 0.023467724447949628 1:-1.4876686096191414 2:-10.303847503662109 3:-0.8355270385742208 4:2.2140476718143343 5:3.518882674455516 6:5.051119375086858 7:0.0036239863901947104 8:-0.24198489630286948 9:-0.3486026901461071 10:-0.9058368428058732 11:-0.26144277056572635 12:0.04547963812082136 13:1.4575415256745357 14:-0.6172264157173079 15:-1.4438385310684436 
-0.04262115711985745 0.06284385462669588 0.04517731869681705 1:-1.7544105529785168 2:-11.112896728515622 3:-0.6560653686523444 4:3.467771390929708 5:5.797049714289602 6:4.711795046527409 7:0.35600129962456895 8:0.05051279087771846 9:0.3655768078092746 10:-2.4879068944029323 11:-0.29827708552995164 12:-0.2622485347884766 13:8.6950880525203 14:-0.6306556675647066 15:-0.9045046355162665 
-0.28117380552920335 0.22189335664536441 0.1608976711406925 1:-1.8397277832031258 2:-10.731417846679681 3:-1.3042831420898442 4:3.142645530668092 5:5.877745660128992 6:2.4068966409307966 7:0.45485605303982557 8:0.2385673878227614 9:0.4984703475161165 10:-2.82212590053203 11:-0.5817349997470056 12:-1.1008695622725493E-4 13:10.466309535914682 14:-0.4497768613132746 15:0.9241382663101375 
-0.0 0.0435495295628711 0.029863988973802248 1:-1.621038055419922 2:-8.976028442382809 3:-0.8933845520019537 4:0.8868966594635281 5:3.382048975443449 6:1.3794831120705937 7:0.1578515898856064 8:0.3854048849476147 9:-0.31274634008189706 10:0.38975891018750897 11:-0.46175018183744926 12:0.5995165547656541 13:0.09283734345704417 14:-0.6382901276835001 15:-0.7195760824448022 
-0.0 0.0011697010550879034 0.0027352506327929264 1:-1.7838294982910157 2:-10.28717727661132 3:-1.6171157836914065 4:1.4236494391568706 5:11.34388556725979 6:2.6963654913729984 7:0.36316907384233077 8:0.43226744902750736 9:-0.14243113953673406 10:-0.10297969440578895 11:-0.9475490921829214 12:0.16221549035248817 13:-0.5356594156144475 14:0.20294653485343736 15:-1.0109426349541153 
-1.0 0.0 0.0 1:-1.4082351684570316 2:-10.327381896972662 3:-1.1552207946777349 4:1.5011621836316797 5:4.492861603505456 6:2.7026907521643486 7:0.4634212825765242 8:-0.14313472522364082 9:0.2969035749816073 10:-0.04424119577719957 11:0.1521574522155955 12:-0.5122117042123521 13:-1.416271719682158 14:0.5697094307723781 15:1.3024393282771165 
-0.2213221775170003 0.15454661198046044 0.1118464970850879 1:-0.9571289062500001 2:-11.553213500976561 3:-1.4082336425781252 4:4.271985196005551 5:8.858309544795173 6:3.7291674104984893 7:0.5162815539396894 8:0.032883561756833934 9:0.48100729080476223 10:-1.0838749629231148 11:-0.5839114306967979 12:-1.1636104247435102 13:0.8888334780574293 14:-0.41398951442293025 15:2.483429590923626 
-0.35873929905795376 0.0 0.0 1:-1.3905822753906247 2:-11.096223449707034 3:-2.0613578796386722 4:3.1655793896084647 5:5.783259979749539 6:4.442533524573664 7:0.3157203812274055 8:0.26050353168359125 9:0.5087376239243055 10:-1.2189899549208194 11:-0.7777966784476696 12:-1.221285311353348 13:1.9902174105216035 14:0.1658423138918183 15:2.2298290897005395 
-0.8392782908732044 0.1443131728654566 0.10398486120108892 1:-0.9630134582519533 2:-10.244026947021489 3:-2.196688842773438 4:0.8781496261822787 5:4.504890998720076 6:2.584794862559062 7:0.017267129059848334 8:0.5231981215190514 9:0.09611998384869569 10:0.15170322157085456 11:-0.3786921442410218 12:-1.945563208148903 13:-0.03395063398241438 14:1.9373801844723393 15:4.677202333919894 
-0.46350534683509437 0.0 0.0 1:-0.7913963317871096 2:-10.414662933349605 3:-2.0270324707031255 4:1.4857678736437845 5:6.107506236719781 6:2.296171388458461 7:0.2015200981519506 8:0.4646500814643498 9:-0.05835948658488697 10:-0.026102736874437538 11:-0.6924745279396928 12:-0.6575126623346647 13:-0.8375156745107618 14:0.8602495156253912 15:-0.7734026370170745 
-0.9260269421818395 0.0 0.0 1:-0.5756492614746103 2:-9.987093353271481 3:-1.3592010498046876 4:1.2554946799966293 5:4.181207156420584 6:1.2091726172110075 7:0.4807681453198413 8:0.1956730008154387 9:0.09682985434576903 10:0.4186745496982787 11:-0.25550904273291736 12:1.0099032500296783 13:1.1839485684136157 14:-0.43869269489080687 15:1.6525285844611717 
-1.0 0.0 0.0 1:-0.6276252746582037 2:-10.45584945678711 3:-1.8495346069335934 4:0.8926181676209687 5:2.9774323847022686 6:0.9536300148558825 7:0.5198314214546308 8:-0.1250988419438672 9:-0.09960504721444266 10:-0.0769070274519208 11:-0.6972998798861738 12:-0.909907079934138 13:0.2239649005096045 14:-0.1677000588344212 15:0.298197154248776 
-1.0 0.15301424150096687 0.11009031927941723 1:-0.8492561340332034 2:-10.716706085205079 3:-2.0113449096679696 4:0.9717497467825899 5:2.05632996713918 6:1.0240021597244775 7:0.0940564532549913 8:-0.1703832953190939 9:-0.05192870822893519 10:0.4390830865138945 11:-0.5838920433431584 12:-0.6562793075895298 13:-0.045425067176997035 14:-0.7975776522669528 15:-0.6933713775602879 
-1.0 0.0 0.0 1:-0.238300323486328 2:-10.17341918945312 3:-1.822075653076173 4:2.4385104391461967 5:2.467774820504719 6:1.788917133665528 7:0.07541102259620042 8:0.21176812639805145 9:0.07336269454828985 10:1.8243445486038474 11:0.08374181425229378 12:-1.1661280022058014 13:4.7202764376034185 14:1.1403650485268888 15:3.0443560039940114 
-0.17956637052937668 0.24421208254230514 0.17701566380576575 1:0.34519577026367243 2:-9.25943908691406 3:-1.6259429931640639 4:1.8682629329123324 5:1.360577162830161 6:1.6478143253736228 7:-0.08123655001804503 8:0.41356706677255944 9:-0.023163944927419446 10:1.8789615269529893 11:0.5506834168902744 12:-1.604918564599345 13:4.762098203119337 14:0.047627796811268296 15:5.219866010379876 
-0.0667240453828344 0.1627389418188727 0.11706025665335609 1:-0.06962509155273432 2:-9.759578704833988 3:-0.4766036987304689 4:0.6808275381912255 5:3.5387380081199966 6:4.129330510415605 7:0.26831993973188994 8:-0.5006075744901605 9:-0.2115102041039036 10:0.09198824158623099 11:0.06022288668072811 12:2.0767386398238776 13:-0.2906005739039939 14:0.8032278229478194 15:3.8735079269737285 
-1.0 0.0 0.0 1:-0.9639923095703139 2:-10.061623382568365 3:-0.9698776245117194 4:1.7788198423944437 5:4.3333956064301535 6:6.24644311095821 7:0.20528803093604878 8:-0.2853097563892001 9:0.4531139691747434 10:-0.23558409036659367 11:0.5544565210903095 12:1.0283874098202301 13:-0.7249203258538811 14:-0.10461451790293548 15:1.884955822065005 
-0.7521284106095981 0.08718571347701244 0.06325519485061502 1:-0.29910354614257806 2:-9.82430114746094 3:-0.5236755371093744 4:1.0254792553948933 5:4.665252755708073 6:7.348491216856059 7:-0.04560710568389851 8:0.12837163665651175 9:-0.01222229010838827 10:0.4117898284123768 11:-0.38464231146938843 12:-0.3048179008758896 13:-0.3596900968294419 14:-0.2286608595251279 15:-0.7443609067495484 
-0.23157088729255407 0.24558941386157626 0.17779884834005028 1:-0.6805816650390628 2:-10.742203521728506 3:-1.253290557861328 4:1.570614460702053 5:6.956892956385201 6:10.5686205737357 7:0.18184885062588324 8:0.6181446760030205 9:0.405813229864626 10:-0.23433265650310564 11:-1.2446080880766415 12:-1.9952132549816204 13:0.5963691494510015 14:2.506579744468717 15:5.21598306754102 
-0.37045881518525625 0.3183577079152973 0.23027714519453601 1:-1.397447204589844 2:-11.386500549316397 3:-2.350655364990235 4:1.3703043671068735 5:7.103862490833251 6:6.4875120658771035 7:0.31492883507186414 8:0.592292962430513 9:0.3941973497612121 10:-0.19957652306970913 11:-1.0022843530059962 12:-2.796590774465914 13:-0.0411315178337417 14:1.1376372797675125 15:11.208729022551754 
-1.0 0.0201229176714665 0.011860200173790672 1:-1.0444084167480476 2:-10.8196762084961 3:-2.131966400146485 4:1.5114827572199299 5:6.457047591989445 6:0.8556534082040894 7:0.18856772602522315 8:0.2928639409937787 9:-0.3096494785707044 10:-0.14017552832686828 11:0.004547491729071605 12:0.7458269368503218 13:-0.06633069429242519 14:-0.47593522324122817 15:1.1798101270685926 
-1.0 0.0 0.0 1:-1.209160614013672 2:-10.51861190795899 3:-1.5984840393066415 4:1.2337600046180892 5:6.136364119171075 6:4.162267561859335 7:0.12033990273280923 8:-0.3904298979472247 9:0.3026261351072011 10:0.7562359588888169 11:-0.38901991589536594 12:0.10573590678524653 13:1.1519748151181466 14:-2.248449781046403E-4 15:-0.9341074697131974 
-0.0 0.04802005878369398 0.03503857394679581 1:-1.813250732421876 2:-9.818418884277346 3:-0.5040611267089845 4:0.9595297188172116 5:7.619828437080143 6:4.671762628114664 7:0.20247705765374557 8:-0.474830008405813 9:-0.38345047599853577 10:-1.3993733186146968 11:-0.3752415945599542 12:-0.4361076524691755 13:2.159960033253976 14:-0.5473332419427247 15:0.9542440069408161 
-1.0 0.0 0.0 1:-1.9328918457031263 2:-9.52618026733398 3:-0.46875839233398453 4:1.384757737931796 5:5.588506060835774 6:3.826348313467463 7:0.44823776188006803 8:-0.4455236475656203 9:-0.46105967632845934 10:-1.24627730690194 11:-0.36643149990409507 12:-0.5941947511167904 13:1.319346911694951 14:-0.5965603589886972 15:2.459576358343528 
-0.27691711868106245 0.0 0.0 1:-1.8603218078613293 2:-10.6009880065918 3:-0.1667129516601562 4:2.417345348593663 5:7.465576472000116 6:5.216916547368745 7:0.1289811444100682 8:-0.29665457038126425 9:-0.0696393714853636 10:-0.9080109007532046 11:-0.5699562649532677 12:-0.13453556924019858 13:-0.002192774667130276 14:-0.3755881759188256 15:0.42659271380556707 
-0.6674264189903489 0.005747099045325999 0.004575993179853549 1:-1.6494789123535167 2:-10.854979705810546 3:-0.19024734497070245 4:2.616207591650892 5:6.006597632134221 6:7.289062927394991 7:-0.17499074857066652 8:-0.25145741117548787 9:-0.11422047301774942 10:-0.5532422801909999 11:-0.5306677009043738 12:-0.5835644942382426 13:-0.2721457300281347 14:0.470587765033954 15:-0.18060982152282956 
-1.0 0.02575831814267469 0.016094864335603337 1:-1.7818679809570326 2:-10.182244873046875 3:-0.6570457458496086 4:1.4513325131847548 5:2.9779858942702306 6:3.8234075520950164 7:-0.5297986128684573 8:-0.3405915633884283 9:-0.026654797786307048 10:0.6867837063937092 11:0.3702059781214369 12:-1.062110037739063 13:-0.5565904624184471 14:-0.47345294952961103 15:0.9969109471439577 
-0.015470769839478274 0.010910838576298834 0.009144445320378978 1:-2.1584434509277353 2:-9.653667449951177 3:-1.0267585754394528 4:0.9933795131713866 5:4.680134808734899 6:4.186883897364025 7:0.11278687145977383 8:0.09060602142785232 9:0.3420012298571634 10:0.4581461146560465 11:0.033553083018575916 12:-1.6885139341461617 13:-1.0347777370680866 14:0.4377731697095004 15:3.0812112224847854 
-1.0 0.0 0.0 1:-2.1966896057128915 2:-9.456553649902343 3:-1.8593421936035157 4:1.2882187392300701 5:4.8216101959603925 6:5.0844776212301825 7:0.33053411114903847 8:0.09144313078273658 9:0.03698969995273378 10:0.06966344570484906 11:0.15501196235609632 12:-0.9908709353246441 13:-0.979325034844263 14:0.4964002495999952 15:0.4492178247576005 
-1.0 0.0 0.0 1:-2.1407913208007807 2:-9.836070251464838 3:-1.6014266967773438 4:1.5705481267510932 5:5.322356171419373 6:3.5283145100553517 7:0.287102815513249 8:-0.33028408974644463 9:0.02688166622442758 10:-0.27052284835432644 11:-0.05404700171880729 12:-1.1517664561055816 13:-0.49503090899223623 14:0.31369592882713454 15:1.4921748721243004 
-1.0 0.0 0.0 1:-1.6435958862304687 2:-10.427410888671876 3:-1.371951293945313 4:1.3289425073214818 5:5.410902021653053 6:2.8028855389589418 7:0.12640025386467652 8:-0.24413393982677575 9:0.1662497288717849 10:-0.9436313678122942 11:-0.1385156798847371 12:-0.6781727181717659 13:1.0148336590829359 14:-0.1731256891405091 15:1.4296329599915902 
-1.0 0.0 0.0 1:-1.5121871948242196 2:-10.075351715087896 3:-0.8472946166992189 4:1.1568849567114388 5:5.279750192977384 6:3.716704693695064 7:-0.47015914544196485 8:-0.3970754854531256 9:0.21282629817036808 10:0.26973382152558867 11:-0.3454897296786386 12:-1.0792986821731787 13:-0.7337683236845141 14:0.7072047737450108 15:0.7940512544816177 
-1.0 0.0 0.0 1:-1.848554992675782 2:-9.410460662841801 3:-1.1032470703124997 4:1.539295674578754 5:3.2794342254864945 6:2.95396829097066 7:-0.305926528338612 8:-0.49327245520956675 9:0.1274774529931971 10:-0.5547525427220743 11:-0.22826965678901648 12:-0.2866905581929124 13:-0.1171515218003825 14:0.47425861106960127 15:-1.1213635364021923 
-0.0 0.02766161138766043 0.019552694000467837 1:-1.7514671325683593 2:-9.228058624267575 3:-0.93457260131836 4:1.3608911685709624 5:3.1005174426705215 6:3.9288391483778846 7:-0.3870461571844286 8:-0.21306477449334893 9:0.2222870206013612 10:-0.715032408684873 11:-0.893461645526424 12:0.8947432027022904 13:1.570796064015178 14:2.1572907515329134 15:0.7855091913118707 
-0.33137924751211695 0.015814286358642234 0.011970192810504668 1:-1.8554191589355487 2:-10.332286071777341 3:-1.9122985839843754 4:1.0179226683656464 5:7.00084259847876 6:2.8873998368484903 7:0.1453666351278671 8:-0.3264085614668729 9:0.03138012764698335 10:0.33720212452930654 11:-0.2316639484834243 12:-0.5319883128842781 13:-0.1685197964856332 14:-0.2810249050525199 15:3.7390937221948333 
-1.0 0.0 0.0 1:-2.0917579650878926 2:-9.963555908203118 3:-0.985567474365235 4:1.1236621902434858 5:5.724598809946306 6:1.9498672492633387 7:0.17192201633548929 8:-0.5355041660706217 9:-0.06886083360057786 10:0.2764589033055709 11:-0.2442330844784016 12:-0.5047027585650647 13:0.022517474514696236 14:-1.1098926733782264 15:0.7896266910155251 
-0.9933504259348698 0.0 0.0 1:-2.6693687438964866 2:-9.913542175292962 3:-0.8286613464355467 4:1.7419839163281736 5:4.822189810217806 6:2.5599736722017434 7:0.07367728978182823 8:-0.29118129665295367 9:0.13485069428099705 10:-0.05764738151249254 11:-0.4508434891807429 12:-0.8538164720908396 13:1.5276100830923296 14:-1.2241459954407465 15:0.22536676494475547 
-0.6425536427984352 0.020015827301358837 0.014262217078423857 1:-2.240819549560548 2:-10.436236572265624 3:-0.8963294982910156 4:2.8455167215381536 5:6.347704090937034 6:1.9784598337783261 7:-0.22275481158504648 8:-0.0526433924160962 9:0.1719327500637961 10:-0.10897353653831532 11:-0.6926349376321937 12:-0.17477683912159012 13:-0.017064073823757655 14:-0.15874581495111922 15:-0.19557293656524963 
-0.18802576816872854 0.0 0.0 1:-1.0571556091308596 2:-9.440862274169929 3:-1.5367019653320309 4:1.8740127160650473 5:3.167135861429289 6:2.998378140854186 7:-0.04511496707105532 8:0.009041392125242891 9:0.582755094503436 10:-0.5722948644717152 11:-0.48854272906203094 12:0.17084637334922304 13:-0.528759743036447 14:-1.0369384739140484 15:0.297146793246001 
-1.0 0.0 0.0 1:-1.12482147216797 2:-9.935117340087896 3:-1.0630401611328124 4:1.5321980947651914 5:4.352302313974947 6:3.4183454594435205 7:0.16950790381228442 8:-0.04885395431668973 9:0.432385640045322 10:-0.5135557523246019 11:-0.2209461111020777 12:-0.06306145712146297 13:-0.3992249467877639 14:-1.0399050993420447 15:-0.7851652772079826 
-0.8972050593478257 0.09373819712923781 0.06724085061149425 1:-0.5844757080078125 2:-11.076609802246097 3:-1.5975021362304687 4:4.636276142010475 5:5.929982321246076 6:5.555212803229228 7:-0.18496338329538364 8:-0.13273206235556942 9:0.15869989822701105 10:-0.9242595553929762 11:-0.046728505808605596 12:-0.5177017791010838 13:3.6751236469903237 14:0.44405972294366425 15:-0.6789887218220084 
-0.4429755382610642 0.0 0.0 1:-0.917901611328125 2:-10.240103149414065 3:-1.3062461853027356 4:4.090760737853129 5:5.216895730569975 6:4.968218207132887 7:-0.07000323037126037 8:-0.2887024292519166 9:0.2103461506829599 10:-0.7766314529854225 11:-0.6415307726567874 12:-0.07306710160748378 13:4.717739123630958 14:0.16522271093993615 15:-0.981618696723867 
-0.704552777118579 0.0 0.0 1:-1.0179298400878918 2:-9.873336029052739 3:-1.7053756713867192 4:2.6856912839802733 5:7.342086852632373 6:3.238154601713176 7:0.05771709963170591 8:-0.19185370265950336 9:0.17746212250334167 10:-0.06598468207245876 11:-0.3801086376960646 12:-0.18546961155349198 13:0.9782424177309185 14:-0.7012839283386784 15:2.154037195480069 
-0.4993916863287827 0.0 0.0 1:-1.644576263427736 2:-9.931195068359376 3:-1.9544654846191416 4:1.3065452698728794 5:6.091482480233522 6:3.4457161138131056 7:0.2555609243073193 8:-0.21258240193203048 9:0.09169198729493223 10:-1.2614012999629467 11:-0.06766569079244328 12:0.055478383998096355 13:2.378246026384772 14:-0.7540196659680225 15:1.4146253252829661 
-1.0 0.0 0.0 1:-0.4883712768554692 2:-9.612477874755859 3:-1.530817413330079 4:1.3493082998995687 5:5.440901412681532 6:3.309584780323204 7:0.20563149477397272 8:-0.2755650475284358 9:-0.3018434935908748 10:-0.5642325129931615 11:-0.12347209781591945 12:0.2287880058641499 13:0.02608821520165755 14:-1.3638922731998875 15:0.2745035368345015 
-0.29270040052848917 0.02090941081076488 0.014912791707475845 1:-0.2608558654785167 2:-9.41732406616211 3:-2.945916748046877 4:2.0770152219681806 5:5.702264183756773 6:8.456977839032223 7:0.3232132346552529 8:0.4499491792135039 9:0.5438815460734852 10:-1.0403619922938403 11:-0.4965034132539627 12:-1.5019664068939012 13:1.2028531858576825 14:0.6168375308384009 15:2.6473843384957703 
-0.06643638863736251 0.1782305588798881 0.12925098037838118 1:-1.0934402465820328 2:-10.26461868286133 3:-3.5402000427246114 4:4.537701923379215 5:7.110085928171749 6:8.245243224582548 7:-0.19068657135717199 8:0.11020605143141897 9:0.3714660372278472 10:-1.2444870374377761 11:-0.7449064047779834 12:-0.9637357684135565 13:3.191435319019813 14:0.935346078599743 15:1.5955731501778165 
-0.05994237304781997 0.1579480536572601 0.11442163478233748 1:-0.7600143432617191 2:-10.271483612060553 3:-2.180017852783204 4:3.558804004059644 5:6.9785147640499146 6:4.790060288675018 7:-0.5379945294470205 8:-0.4052041026383938 9:0.26701545523437 10:-2.36274980208487 11:-1.163571682456565 12:0.4810329934352109 13:8.467796004071536 14:0.6651794975424886 15:-0.7583402105752828 
-1.0 0.0 0.0 1:-0.25203094482421884 2:-10.434273529052742 3:-1.3111488342285162 4:0.9042850680393191 5:6.799243220255638 6:3.4985340119915795 7:-0.1694028592362667 8:-0.3707740969932299 9:-0.1664056705283814 10:0.04638752190870296 11:-0.14334554862762677 12:0.9704472755547239 13:0.5793138899716833 14:-0.8271660012962574 15:-0.35696448691324806 
-1.0 0.0 0.0 1:-0.7511894226074223 2:-10.40975799560547 3:-1.293497467041016 4:1.2911108591238754 5:5.809957938033646 6:2.6082353646465357 7:0.10918564130734842 8:-0.15702062202974235 9:0.09046698891208518 10:0.10881655204552891 11:0.3278562235446512 12:0.44092404792766526 13:0.2161553510941841 14:-0.48073772321484354 15:1.5910887937876101 
-1.0 0.0 0.0 1:-1.2356384277343757 2:-9.948847961425779 3:-1.6141746520996094 4:0.889728075675668 5:5.52625695432302 6:3.0444830261514313 7:0.1957659282177271 8:-0.17825276297149945 9:0.2919055705998116 10:0.05878631103218273 11:0.12833377950407981 12:-0.4756600558538183 13:-0.44331540917505297 14:-0.18838317358371579 15:-0.05706545864727648 
-1.0 0.0 0.0 1:-1.3758735656738286 2:-9.990035247802734 3:-1.910336303710937 4:1.1979828274081246 5:5.481026424408758 6:3.688876307560131 7:-0.04924183082740425 8:-0.26000072641102384 9:-0.24192414500909326 10:0.41697083228588067 11:0.007729723911506109 12:-0.5105167310115544 13:-0.490381744925427 14:-1.146880603280287 15:0.13621855772754207 
-0.25759174759737796 0.23012000753710632 0.16671377813147442 1:-1.4808029174804687 2:-10.715725708007817 3:-1.4739410400390645 4:1.328670836610256 5:11.748712780806297 6:4.7335170229105294 7:-0.10772075254721175 8:-0.5172170283974336 9:0.0603719488346368 10:-0.41216947514322005 11:-1.8517018649302495 12:1.3725089904356276 13:1.3125733487706213 14:5.202826440552011 15:3.855723130227301 
-0.2490344848981201 -0.3077546615527901 0.15123584343781066 1:-0.2441848754882816 2:3.7696777343750023 3:9.173141479492188 4:0.0010953407944180138 5:0.0015619557676835878 6:0.001427108957432187 7:0.4382579726915502 8:0.07992235648652814 9:0.06615529491153056 10:0.48333569314095914 11:-0.020523904953457107 12:0.5015706057291898 13:-1.1195569404193952 14:-1.4812909343876695 15:-0.7023830113730336 
-0.22146724933303313 -0.28400598333164406 0.13407875242883321 1:-0.2628189086914066 2:3.8245933532714873 3:9.144702911376955 4:0.002554258608724917 5:6.154584110481708E-4 6:0.003303459027665579 7:0.1687467171437021 8:0.18882511224616938 9:0.3906306366182597 10:0.029703717336271564 11:0.17319091870219988 12:-1.278337202654622 13:0.282496817798777 14:-1.3259847012940562 15:2.2835282201659033 
-0.14112077803792827 -0.17154496792923515 0.08481664568964228 1:-0.26183853149414105 2:3.8471481323242203 3:9.183927917480469 4:0.002549515764112575 5:0.00193387330742551 6:0.004303425548132521 7:0.1649986920269515 8:-0.4183491826891564 9:0.0972654239649892 10:-0.8807283271186627 11:-0.8108940867238437 12:-0.3206022941336287 13:0.660190260000933 14:1.5004633088604102 15:-1.5954935834983621 
-0.16556879653111087 -0.2002124951542114 0.10070309608352744 1:-0.3177368164062503 2:3.774578857421877 3:9.164314270019531 4:0.0028311266005039194 5:9.79911293834401E-4 6:0.00595784221077347 7:-0.36028573949431236 8:0.15727373763343155 9:-0.40745851340479744 10:-0.4379793694194074 11:-0.19543953235227804 12:-0.4832537791774805 13:-0.2343105210623269 14:-1.5978444711761226 15:-1.036878325498214 
-0.5293619758228777 -0.6507934367204734 0.32051476416177627 1:-0.3500984191894535 2:3.8520530700683606 3:9.16627655029297 4:0.0015876910527003834 5:0.0022080269706201564 6:0.003741964532527964 7:0.23416843299636947 8:0.08832794991988924 9:-0.16614835078450682 10:0.9747400005762034 11:0.1316408727215678 12:-0.5900341913196775 13:2.896090352750076 14:-1.199007616513528 15:-0.053969136297126206 
-0.8334028897339586 -1.0 0.5047816138235497 1:-0.1716163635253908 2:2.9263046264648445 3:9.454590606689454 4:0.001264691363903701 5:0.0017542195529677098 6:0.0011338177946162771 7:0.12911442657643857 8:0.48830658393018656 9:-0.03621515441454604 10:0.03307693218527896 11:-0.017396458830272254 12:-2.1704310134856537 13:-1.2550688750416847 14:-1.3355057006123336 15:8.047596420208972 
-0.4024006177396187 -0.5236758268034423 0.24379273251253755 1:-0.16082992553710945 2:2.9037475585937504 3:9.45949478149414 4:0.0014464035694254625 5:9.800369851291008E-4 6:0.0012348302052123102 7:-0.04524310434739225 8:0.20457531252291097 9:0.2043223291083925 10:-0.054007079677379166 11:0.5947984754156711 12:-2.2398396115021644 13:-0.9547978169526576 14:-0.5158250207867076 15:7.739012512613027 
-0.5496598848091551 -0.6788773906983817 0.332465224238671 1:-0.11964187622070317 2:2.840007019042969 3:9.479108428955078 4:0.0013424179580761157 5:0.002292786797042849 6:8.502427785424254E-4 7:-0.1469684533580093 8:-0.6033790848473479 9:0.24479859234996817 10:-0.5296227684113446 11:-1.7537765499785232 12:0.7772588609934156 13:-0.6107073209790507 14:3.2664251180884323 15:0.7749976797772237 
-0.47766643914493906 -0.5933038101685963 0.28978202388269014 1:-0.1314102172851563 2:2.8409881591796875 3:9.477146911621094 4:0.0015809391369111907 5:0.0025496339658274223 6:0.0016772984783165479 7:-0.12554852300716482 8:-0.24554636495608384 9:0.4110742906001217 10:-0.2703052166429211 11:-1.3891940947977854 12:-1.236292685206603 13:-0.32206963166461183 14:2.321517852308052 15:3.301945851967472 
-0.0 -0.001169829976895263 0.0 1:-0.7168670654296874 2:2.3526176452636727 3:9.554618072509765 4:9.414238249883005E-4 5:0.0015953801636351393 6:0.0014337441528914296 7:-0.47939770502884876 8:-0.30329876440506875 9:0.3418415593396743 10:-1.1742885889511279 11:0.07920238479961549 12:-0.5413883491474965 13:2.1454135118851534 14:-0.6456456141123378 15:0.11795766454560692 
-0.4924319507632789 -0.6052863986356704 0.29924932290587103 1:0.12062225341796881 2:2.0790107727050784 3:9.595806884765626 4:0.0029726460319943852 5:0.0021158832934452193 6:0.0020339844422415693 7:-0.22241037684593218 8:-0.3709052301063492 9:-0.11537222621442597 10:0.35772762671567626 11:1.33284012844908 12:-0.7338040873242437 13:-0.06540299120821462 14:2.9037880787104804 15:-0.2220292093478386 
-0.6119492932945086 -0.755324092157772 0.37084602286942475 1:0.359903717041016 2:1.6788978576660143 3:9.63993835449219 4:9.72391275572579E-4 5:0.0013616916228783795 6:5.962356226518906E-4 7:-0.5548859630877949 8:0.021308882240704062 9:0.1137725583717569 10:0.8889121756398422 11:-0.36639311271557423 12:0.27258487436321754 13:3.1574271349493297 14:0.42889557590490357 15:-1.208525969285775 
-0.8525316467287282 -1.0 0.516302340326512 1:0.3726524353027347 2:1.6700729370117173 3:9.646800994873049 4:9.619175054831353E-4 5:0.0011261092242784937 6:0.0010107410809723893 7:0.425124720338478 8:-0.2984647886392836 9:-0.23408722464070394 10:0.6211754553822579 11:-0.6935953701416777 12:1.602056533259958 13:0.40077874213393533 14:-0.7626586206191022 15:4.572647258299254 
-0.5682691858956952 -0.7014244995997082 0.3433414680501754 1:0.1137573242187501 2:1.4455017089843758 3:9.706620025634766 4:0.002100289580412218 5:0.0025041057821362793 6:0.0013424418977229027 7:0.4847489190236847 8:-0.2685540870915421 9:-0.2795304359012121 10:0.25517405530266996 11:-0.1559471124201911 12:0.3316759710336133 13:-1.6041270333963653 14:-0.511858790307469 15:-1.521860755295453 
-0.0 -0.06525096483729151 -0.03819292110504883 1:8.863249969482425 2:-6.586145019531251 3:-0.9080947875976564 4:1.4695519870956155 5:0.8008550092671058 6:0.25862540288129826 7:-0.5900727984334222 8:0.570431357480612 9:-0.44254639857329725 10:0.11023824762525451 11:0.08415784072604532 12:0.3582269029305298 13:-1.326681486659792 14:-1.0055200999845066 15:-0.9582423211273895 
-0.0 -0.002001048379701771 -0.0 1:8.54453353881836 2:-7.083343505859375 3:-1.1885658264160162 4:0.3742668501910527 5:0.6350832045311121 6:0.13157606148801265 7:-0.07464416868429839 8:0.48394349983927043 9:0.05441267562744462 10:0.4842819694503685 11:-0.43920316637365986 12:0.5838459146712768 13:-0.8487546996888543 14:-1.6862939529825614 15:-0.3500955799510745 
-0.09137127366989975 -0.06367059015297143 -0.055284579737162276 1:8.393511962890626 2:-7.146107482910156 3:-0.9953742980957034 4:0.5056049246946336 5:0.7267894056648965 6:0.24907455575361412 7:0.16273010676955404 8:0.29600412613103655 9:0.3095508886519919 10:0.2947989854541226 11:-0.8596941072814476 12:0.18832535904665798 13:-0.921237788615438 14:-0.037184973684425686 15:-1.7921350745760867 
-0.4242324827699069 -0.4889053804139332 -0.3125506862801894 1:8.23366241455078 2:-7.073537445068361 3:-1.326839447021485 4:0.5881592064420603 5:0.7584870409051645 6:0.3385298842767953 7:-0.06167405309797659 8:0.5007969031102425 9:-0.1434375166478865 10:0.5908694410431684 11:-1.589209983412872 12:-0.37121633271542515 13:1.4645136013103084 14:2.6203149838215345 15:0.5491326625255646 
-0.08459777041227566 -0.0 -0.0 1:8.21306915283203 2:-7.213771820068359 3:-1.6200576782226566 4:0.37240433811908513 5:0.9714981177326985 6:0.3089916184986947 7:-0.2537109594215402 8:0.7002321428411644 9:-0.1203744073883784 10:-0.5023343906718707 11:-1.0656460422094136 12:-0.7028693529131171 13:0.7629736287928164 14:0.0930493776207376 15:-0.6715649926033199 
-0.13361309561659207 -0.0 -0.0 1:7.978689575195313 2:-7.14022216796875 3:-2.554631805419924 4:0.6336698417412114 5:0.4103972463728872 6:0.2446134924254145 7:-0.08437989196505648 8:0.5288529472176295 9:-0.065562102747336 10:0.09675971508752468 11:-0.11823737273820388 12:-1.0813207236908677 13:-1.2724777465249875 14:-0.6800261951536175 15:1.172519609878115 
-0.09910409277763096 -0.0 -0.0 1:7.995363616943361 2:-7.190235900878908 3:-2.7027114868164075 4:0.5207937076984669 5:0.5330313618085353 6:0.21298366170143795 7:-0.5404029723737733 8:-0.08988523146707855 9:0.006607602388795616 10:0.28897207278416054 11:0.07114397729668442 12:1.049187108625257 13:-0.9123148907164498 14:-0.8638787643438149 15:0.22283198003861274 
-0.9891553784972391 -0.9656542273020793 -0.6502430872712146 1:7.793345642089844 2:-7.355968475341799 3:-2.610531616210939 4:0.5857247047615239 5:0.39896998780022797 6:0.09362797223962781 7:0.0021627818923504755 8:0.2580349413641128 9:-0.06482924076903215 10:-0.1913295803664839 11:0.42834034528372755 12:0.3223179342522516 13:-1.198173047704103 14:-1.1587314624105391 15:-1.3565575531776175 
-0.12709866987649693 -0.15443270125606715 -0.09181483589087411 1:7.708026885986328 2:-7.2775146484375 3:-2.212381744384766 4:0.6058342356205703 5:0.3886605149740353 6:0.18893952544953138 7:0.28792855254061783 8:0.5642166936874897 9:-0.03854764448649211 10:0.3966439711511395 11:-1.564650670861865 12:0.27263213291248595 13:-1.2381980419358143 14:2.5711223544503214 15:-0.1430012449824951 
-0.2707293228480722 -0.3792846681312948 -0.20889847764123742 1:8.856385803222652 2:-6.0801231384277346 3:-1.4092140197753913 4:0.9934207913908066 5:0.7290461299353068 6:0.2647095662978257 7:-0.42851565622208676 8:0.22443188701445654 9:-0.12387370188534377 10:0.4812924345941988 11:-1.292970733465953 12:-0.7373724795410247 13:-1.4844711397171064 14:3.3375372680543394 15:1.90734389515892 
-0.32426421588583354 -0.4803984830588025 -0.311934635802427 1:8.877960205078123 2:-5.727084350585939 3:-1.7465644836425802 4:0.837233601324255 5:0.7415889042336493 6:0.09607343653391573 7:-0.3231131381250196 8:0.594267989693956 9:-0.2758444191803133 10:1.2213107131769054 11:-0.5333028231602188 12:-0.3439832350471584 13:1.7449077987455022 14:-0.8845394754752466 15:-0.0553567571528837 
-0.9055191079857949 -1.0 -0.7248673550444958 1:9.226096343994145 2:-5.411309814453125 3:-1.59063720703125 4:0.8524311471841186 5:0.4606148549914365 6:0.14552120740991098 7:-0.4736537887686616 8:0.5840256166413433 9:-0.45601664389323454 10:0.348045187914896 11:0.39804528039518355 12:-1.5097713522158678 13:-0.5141201569580149 14:-0.5971239005881325 15:2.809836730899588 
-0.09923064317787794 -0.2411384794240374 -0.15661602991214274 1:9.077035522460935 2:-5.241654968261718 3:-1.2415206909179688 4:0.5201885324763068 5:0.4778461169428203 6:0.17311158785829267 7:0.07503987489131755 8:-0.2084176020981715 9:-0.371769142806374 10:0.3946430503736681 11:-0.07203985304771753 12:-0.08868854557743971 13:-0.9892090376850654 14:-1.3559996332993145 15:-1.187714041575435 
-0.24229897864660352 -0.3275037432401541 -0.2128184517800197 1:9.357506561279301 2:-4.892539215087892 3:-1.956427001953126 4:0.6819200274412298 5:0.6740168475889375 6:0.17221761349123058 7:-0.2953972169203389 8:0.1854719409251749 9:-0.5672407957985005 10:0.1512088449979247 11:-1.0459437600037462 12:0.1785180033916661 13:-1.7596982432416812 14:1.4921413203236271 15:-0.95760360755194 
-0.15958798566648866 -0.2383417398391084 -0.16613850755705128 1:9.006427764892583 2:-4.841541290283202 3:-1.8691490173339862 4:0.6557893170247726 5:0.32468087323650263 6:0.16837854742712727 7:-0.27405276901735254 8:0.30369844435806176 9:-0.14955394855387644 10:0.9410389127113595 11:-0.3697286617757516 12:0.3246941557785932 13:1.4015411080500266 14:0.7618286569122603 15:-0.7735668378673343 
-0.9690339993277782 -1.0 -0.7625502823891581 1:8.59748992919922 2:-6.038934326171875 3:-0.8776962280273441 4:0.5277920667291678 5:0.42980124499648903 6:0.10778352238936376 7:-0.49198139647351347 8:0.25178245075575467 9:-0.33755172947974804 10:0.5951432619848218 11:-1.9867425518165374 12:-0.7007657612002142 13:-0.8249050167411637 14:5.159132114015754 15:-0.15012092346622888 
-0.18045220988397068 -0.0 -0.0 1:8.402337646484376 2:-6.267431640625 3:-0.562902069091797 4:0.6644377240538677 5:0.8193481049593521 6:0.08901934030640421 7:-0.41011861674404726 8:0.5532470754406532 9:-0.3035688254752794 10:1.2033573353075022 11:-0.5219014804029734 12:-0.0951221902148039 13:1.0483006860199156 14:-0.8354528241758904 15:-0.45789205133346994 
