svm_type c_svc
kernel_type rbf
gamma 0.1111111111111111
nr_class 4
total_sv 215
rho 0.6987181326797958 -0.6043450964518126 -0.5674654788955984 -0.8085430073879389 -0.7802284757724988 0.07701464782444072
label 1 2 4 3
nr_sv 90 109 7 9
SV
0.17414420463550964 0.08971397013598485 0.25948014300262495 1:5.1386863708496096 2:-7.990457153320312 3:-1.9838851928710945 4:0.8942696214531306 5:2.123456957316952 6:1.7853521454357526 7:-0.49505362085884314 8:-0.5264917614253491 9:0.1778393798460096 
0.029999524516419306 0.0729942919343289 0.0 1:4.831735992431641 2:-8.082643127441402 3:-1.453343963623047 4:1.109430932120305 5:4.89357038454384 6:1.7000574642856385 7:0.26245823233643206 8:-0.23422401688671624 9:0.04468769267524868 
0.8561118430740055 0.15596012703687273 0.4732952117818199 1:5.517221832275391 2:-8.413124084472667 3:-2.1035270690917978 4:0.7018177914497202 5:2.826427288015876 6:0.9292729288543351 7:-0.7837395669847456 8:-0.2249806660506127 9:0.19817126860658785 
0.8209159727018407 0.19837731466459058 0.11854598690762906 1:5.397579193115236 2:-7.909062957763669 3:-2.4938301086425794 4:1.0089636501128552 5:4.313345198782029 6:3.272616011027133 7:-0.5513785148935068 8:-0.5537755035707529 9:0.22444811816856364 
0.628012244304238 0.0 0.0 1:0.5011184692382813 2:-10.048873138427735 3:-1.112073516845704 4:0.8198138841218325 5:3.597635323611903 6:1.6236297073605261 7:0.18426717899252157 8:0.05054435460724083 9:-0.28203083710290167 
1.0 0.0 0.0 1:1.300361633300781 2:-9.870392608642575 3:-1.884838104248048 4:1.0142202398157676 5:3.447778705984235 6:1.6781279902643313 7:-0.23173286009588412 8:-0.3565766710008768 9:0.13672250522968415 
1.0 0.0 0.0 1:1.1748359680175784 2:-9.655626678466795 3:-1.9956527709960947 4:1.0298282206169094 5:3.075148821395701 6:1.386383475849873 7:0.3409395084832567 8:-0.1925226908896336 9:-0.18892320949545946 
1.0 0.0 0.0 1:0.6521423339843757 2:-9.435958099365237 3:-1.4602104187011726 4:2.1664072968205446 5:2.6691120834898907 6:1.5920985821000078 7:0.04042774384050698 8:-0.10051391031259739 9:-0.4323831992528977 
0.13781874778263312 0.0 0.0 1:0.5687850952148447 2:-10.228336334228521 3:-0.8198364257812507 4:2.113171965905931 5:2.906248268971121 6:1.6005315309064478 7:-0.4003009529165893 8:-0.1669644236126537 9:-0.19053424480544165 
0.2754246426635539 0.0 0.0 1:0.8904426574707044 2:-10.563724517822267 3:-1.2209289550781257 4:0.9024376941024108 5:3.431408834757181 6:2.4217561449995273 7:0.1642673091601558 8:-0.12400905985280404 9:0.07915470067682505 
1.0 0.0 0.0 1:0.8982887268066413 2:-10.281291961669922 3:-1.8936653137207045 4:1.0081172788486588 5:3.707735807608686 6:2.1834651729528556 7:0.5716972874946497 8:-0.03711841181448538 9:-0.1301746854389896 
0.0 0.11379598527256357 0.13313175362515917 1:0.7355003356933593 2:-10.239123535156251 3:-1.1787582397460943 4:0.9873817077110308 5:2.208284462071034 6:0.8328325445274831 7:0.3008217199353196 8:-0.31873476086374947 9:-0.4858456508448937 
1.0 0.002301568993728972 0.017675371483411015 1:-0.08531646728515704 2:-10.789276123046882 3:-1.1159980773925777 4:1.8724451080453597 5:1.9785722069442275 6:1.602389406842995 7:0.42626029880019384 8:0.3002266212811276 9:0.17842779236485656 
0.5513498406353143 0.0 0.0 1:0.4069763183593748 2:-10.66277084350586 3:-1.6014282226562497 4:3.0094283274933713 5:2.8802783273224364 6:2.05898284561932 7:0.6173077684319175 8:-0.11083125814795645 9:-0.11378018789826388 
0.8721347664272805 0.059295976049735015 0.0565307696083913 1:0.9188850402832041 2:-9.477146148681639 3:-1.9662338256835947 4:0.8181907162180891 5:2.140197084538522 6:1.854195202861451 7:0.7463378084943287 8:-0.3247738381954239 9:-0.3887663618206234 
1.0 0.0 0.0 1:-0.6825439453125002 2:-10.58725891113281 3:-0.46777648925781223 4:1.4734332696907217 5:4.044067938355708 6:3.6351696143299366 7:0.04435489343211529 8:-0.3024376379599527 9:-0.11670674737123854 
1.0 0.0 0.0 1:-0.32558135986328096 2:-10.17930221557617 3:-0.8178733825683595 4:1.6177591369510627 5:6.9722796029847816 6:4.239420854888744 7:-0.06848433650075655 8:-0.09291725472187827 9:-0.5089163251299484 
1.0 0.0 0.0 1:-0.16867446899414043 2:-9.987093353271487 3:-2.244740295410158 4:1.0087259160325632 5:7.222767535906175 6:3.7946253605908757 7:0.027345133283760596 8:0.034387904642401206 9:-0.10234520094025444 
1.0 0.0 0.0 1:-0.6570449829101564 2:-10.10575485229492 3:-1.9936912536621108 4:2.3949346802639773 5:4.373705181243712 6:2.814911723217815 7:0.2638918598477266 8:0.19675237025144277 9:0.14540505220422467 
1.0 0.0 0.0 1:-0.7737434387207033 2:-10.122425842285159 3:-0.8590637207031259 4:2.505761762998882 5:4.390251323583105 6:1.8436844888469206 7:0.2907011802214303 8:0.1119242700747443 9:0.09318996370951899 
1.0 0.0 0.0 1:-0.4354141235351565 2:-9.850778961181643 3:-1.7779464721679694 4:1.1498744190693828 5:5.7436789905716825 6:5.251832991407718 7:0.03798993049075718 8:-0.1734220603331649 9:0.007344766746233976 
1.0 0.0 0.0 1:-0.15102233886718752 2:-10.291096496582032 3:-2.3702667236328128 4:1.355350286243484 5:6.993050187013573 6:3.18879029228352 7:0.20587002011211386 8:-0.3051157251728552 9:0.11336530381055528 
1.0 0.0 0.0 1:-0.20790023803710933 2:-10.588238525390626 3:-1.9230834960937506 4:1.3560156999499315 5:6.4032205829303575 6:1.9757008409034458 7:0.18211219557419864 8:-0.239105126555093 9:-0.30539383589976377 
1.0 0.058627536510681914 0.06190636587529842 1:-0.343231964111328 2:-10.759855651855478 3:-1.6386909484863286 4:1.006614700320061 5:6.97421544035668 6:4.581991611464763 7:-0.1410622547002717 8:0.10110945701469956 9:-0.3063620518297256 
1.0 0.0 0.0 1:-0.3638259887695309 2:-10.386222076416022 3:-0.9600708007812507 4:1.2103009129897688 5:5.44411153875936 6:4.270822499520145 7:0.2398981737904266 8:0.15852022743974395 9:-0.3538851412203808 
1.0 0.0 0.0 1:-0.005883789062499737 2:-10.231276702880857 3:-0.11081466674804714 4:2.2548892857599983 5:4.244466915970556 6:3.3604695892258354 7:-0.023581377343413545 8:-0.19648466090524352 9:-0.06392641949572993 
1.0 0.0 0.0 1:0.15004119873046878 2:-10.55685882568359 3:-1.1513008117675774 4:1.973044683781918 5:5.741443184183441 6:5.086299311865007 7:0.10437479215679084 8:-0.10903588673259586 9:0.07708553797095251 
1.0 0.20692345060832845 0.22455417508097833 1:-0.012747955322265959 2:-9.990034484863276 3:-1.1601264953613275 4:1.1158969024306886 5:5.088540822707573 6:6.5301331419608335 7:0.342597215864147 8:-0.02900491592114221 9:-0.01697810489252914 
1.0 0.0 0.0 1:-0.3912849426269534 2:-9.903735351562501 3:-0.3804977416992187 4:0.9947288193012371 5:4.134031566130004 6:4.89097578111338 7:0.06957930648366988 8:-0.07651768529939476 9:0.07268688544311147 
1.0 0.0 0.0 1:-0.8257194519042967 2:-10.070449829101564 3:-1.0100837707519537 4:0.6539923015813105 5:4.924015403608788 6:1.5119341462216147 7:-0.07458793629678771 8:0.1105573145240644 9:-0.31257677797933586 
1.0 0.0 0.0 1:-0.4962158203124994 2:-9.85372314453125 3:-0.8080665588378917 4:1.0951905518071723 5:6.389657798325627 6:2.111453705711178 7:-0.054234065057773444 8:-0.13476986428810528 9:-0.22432220894906885 
1.0 0.0 0.0 1:-0.703136444091797 2:-10.191069793701184 3:-1.574948120117187 4:0.9751811715279481 5:4.89435441276236 6:2.8389174525300036 7:0.5237503082985489 8:-0.6935750034103596 9:-0.5022551713336937 
1.0 0.0 0.0 1:-1.0522537231445312 2:-10.070447540283205 3:-1.3474334716796874 4:1.9930468512349777 5:4.957678455795983 6:3.584007034855895 7:0.030441537444338078 8:-0.12297421943301495 9:0.19655335663751022 
1.0 0.0 0.0 1:-0.6678329467773436 2:-10.406816864013669 3:-0.6531234741210936 4:1.8014469818188807 5:4.444013005827442 6:4.04373752975138 7:0.08216187722129172 8:-0.3200698205624093 9:-0.053335463535736455 
1.0 0.0 0.0 1:-0.8384674072265627 2:-10.371513366699222 3:-0.4187438964843754 4:1.7317536415904762 5:4.856902626843668 6:3.0844179565692333 7:0.19890236851643078 8:-0.14230262286739678 9:-0.13722773005971228 
0.7395845185685791 0.0 0.0 1:-1.0051818847656253 2:-9.235903930664069 3:-1.1581642150878912 4:1.8054205513652426 5:5.9443710447196265 6:2.1163008415250806 7:0.060213203691242265 8:-0.46469684465325634 9:-0.15541524674755963 
1.0 0.0 0.0 1:-1.3297836303710941 2:-9.292781066894536 3:-1.5151268005371104 4:2.905719151699447 5:5.91746769084363 6:2.0596168777503783 7:0.04695282602377049 8:-0.3856137369788125 9:-0.19493139449550273 
1.0 0.0 0.0 1:-0.5089653015136717 2:-10.224414825439453 3:-1.5504302978515627 4:0.5595775054412657 5:3.678480874441457 6:2.061221114289948 7:0.5899441783924715 8:-0.34160400205823976 9:-0.29897780855628764 
1.0 0.0 0.0 1:-0.500140380859375 2:-10.346016693115235 3:-1.2797668457031248 4:0.9584178696991874 5:4.1242307926638695 6:2.4581492714257913 7:0.35923841653327276 8:-0.4073239387822658 9:0.0056684351123177466 
1.0 0.0 0.0 1:-0.8110107421875 2:-9.638957977294933 3:-1.5935798645019534 4:0.705399459563195 5:3.612595973999165 6:1.784108647128452 7:0.44428429305825023 8:-0.19608990351030023 9:-0.06825098148710552 
1.0 0.0 0.0 1:-0.5275978088378905 2:-9.114302062988287 3:-1.78382797241211 4:0.9074961811600961 5:3.599081381198501 6:3.795747903303128 7:0.5493160688962619 8:-0.5346014469511203 9:-0.32307882863657117 
1.0 0.0 0.0 1:-0.7335365295410166 2:-9.618363189697273 3:-1.6043670654296878 4:2.3638430070475476 5:4.9866008600796565 6:3.6486502512497836 7:0.0880991980525408 8:-0.5610993693280002 9:-0.4962435118875957 
1.0 0.0 0.0 1:-1.17777786254883 2:-10.32542190551759 3:-1.2209274291992183 4:2.418358937354644 5:4.6564327628183095 6:1.0926825127354818 7:0.1645499492922257 8:-0.03594332085611948 9:-0.23857391966502173 
1.0 0.0 0.0 1:-1.0355827331542977 2:-10.091042327880869 3:-1.3493957519531248 4:1.1297573578188913 5:4.395931011007058 6:1.2669689539587143 7:0.8178518986612682 8:-0.20179563023144123 9:0.04083771793556617 
1.0 0.0 0.0 1:-0.699213409423828 2:-10.062602996826183 3:-1.718125915527344 4:0.6627028256020278 5:3.210034688372997 6:1.475422475973612 7:0.44608124540509597 8:-0.3651330843551251 9:0.002435822347076479 
1.0 0.0 0.0 1:-0.472679901123047 2:-9.906676483154303 3:-2.3045631408691416 4:0.8063298098620729 5:3.6579333903378646 6:1.2982419367478015 7:0.016192573491552238 8:-0.2678323921276064 9:0.27127282419483106 
1.0 0.0 0.0 1:-0.23339920043945317 2:-10.07633285522461 3:-2.259452056884767 4:1.0502191294560936 5:4.573130057274244 6:1.9815934503794446 7:0.09810887138908522 8:-0.21755697680523092 9:-0.2869174382796849 
1.0 0.0 0.0 1:-0.1627914428710942 2:-10.061624908447273 3:-1.795597839355469 4:0.8560744989221009 5:4.584405491623933 6:3.1106675332901075 7:0.36038668914364497 8:-0.30095520743408977 9:-0.48401848245537665 
1.0 0.005144901415298782 0.007856218728757396 1:-1.1120750427246104 2:-10.463696289062508 3:-1.2915359497070318 4:3.4075870614842274 5:5.179602403091301 6:3.2069107843539655 7:0.5448798488083568 8:-0.33783990500404165 9:-0.13340346386019697 
1.0 0.0 0.0 1:-1.1513008117675776 2:-10.031223297119144 3:-2.2790641784667978 4:0.8499569269892527 5:5.634030308199026 6:3.1691467839264074 7:0.035771187032519636 8:-0.349951217635296 9:0.10178341843594148 
1.0 0.0 0.0 1:-0.5717277526855468 2:-9.907659912109382 3:-2.5046173095703126 4:1.4167161805991797 5:5.859401865755229 6:2.640954313389954 7:-0.07160272383549446 8:-0.4723727740541718 9:0.4625821557266143 
1.0 0.1888559205009656 0.20394460440211704 1:-0.05883941650390632 2:-9.897853088378913 3:-1.904450988769532 4:0.9296587635972552 5:7.963033226903074 6:2.4147559877927423 7:-0.1581821657009204 8:-0.3913750623617502 9:0.1178326395854973 
1.0 0.0 0.0 1:-0.6217414855957029 2:-9.29768295288086 3:-1.3817573547363287 4:1.1336984751390997 5:7.244149659608378 6:1.8021721341012769 7:0.08723196221759655 8:-0.11096126059638646 9:-0.32856730137928875 
0.0 0.036788251757419524 0.037892388096540296 1:-0.8404296875000001 2:-10.314633178710945 3:-0.2892967224121093 4:1.7348915269924325 5:5.523291855645381 6:1.3856557408178947 7:0.08945374366216201 8:-0.4057965044525303 9:-0.3463919506613329 
1.0 0.0 0.0 1:-0.25595550537109424 2:-9.905695343017584 3:-1.7455848693847653 4:0.7914601624268112 5:3.512893572176702 6:3.2388978370063732 7:0.15445489307001095 8:-0.3415313609295968 9:0.36621022033604017 
1.0 0.0 0.0 1:-0.48248748779296946 2:-9.406537628173833 3:-1.3650856018066402 4:0.8665439052530572 5:4.894163926673949 6:2.821460054765341 7:-0.41704982033090593 8:-0.03859278389452357 9:0.18586496153463458 
1.0 0.06641657177833582 0.07614914684408988 1:-0.9326103210449226 2:-9.444784545898443 3:-1.111094665527344 4:1.13063510643493 5:5.238221163777649 6:0.95840572240064 7:-0.3507406895199251 8:-0.056526947527304215 9:-0.103900117803219 
1.0 0.0 0.0 1:-1.0806922912597667 2:-9.732119750976565 3:-1.4749214172363287 4:1.2070490777463427 5:5.693503312384708 6:2.0638745929923634 7:-0.16349417010001158 8:-0.5221069986485605 9:0.1741837189534892 
1.0 0.0 0.0 1:-1.39548568725586 2:-9.430073547363282 3:-1.5386627197265632 4:2.361262377781679 5:4.590087576236104 6:2.3262626106990525 7:-0.07328985613209059 8:-0.38520294981778475 9:0.027432547616547665 
1.0 0.0 0.0 1:-1.4866867065429683 2:-10.089080047607426 3:-1.1365905761718758 4:2.9911162473610617 5:3.8175583910307793 6:3.566550175691959 7:0.09547484041376778 8:-0.4058303432284314 9:-0.2847330641609896 
1.0 0.0 0.0 1:-1.2856521606445317 2:-10.567646026611339 3:-1.8171722412109381 4:1.4228011959348803 5:4.4201328489202165 6:4.215963414791043 7:0.45862496869290315 8:-0.4940779684706919 9:-0.4256414373179678 
1.0 0.0 0.0 1:-0.7041168212890632 2:-9.940019989013681 3:-2.054492950439454 4:1.122461215616205 5:4.263455994596623 6:2.841521224888856 7:0.39718338081227755 8:-0.24347233435485 9:0.01968147190060985 
1.0 0.0 0.0 1:-0.22653274536132811 2:-9.884121704101569 3:-1.5739669799804694 4:0.57977274173114 5:4.227093139700598 6:2.503189764136915 7:0.004008772488746672 8:-0.4233289146123752 9:-0.006526179334075028 
0.37032463155091705 0.0 0.0 1:-0.2941993713378903 2:-10.040048217773446 3:-1.2944778442382812 4:0.4406116419302991 5:3.2853312360681697 6:1.0567197045055228 7:0.06274302734148661 8:-0.48763340736663285 9:0.14618163159297085 
1.0 0.07293691345758614 0.08118403693788268 1:-0.6109535217285151 2:-9.848818969726572 3:-2.151580047607422 4:0.9529405176750144 5:3.5240012644697325 6:4.62361185363203 7:0.16526392732908385 8:-0.3175538820410468 9:0.48837951365506127 
1.0 0.0 0.0 1:-1.215045166015625 2:-9.920406341552741 3:-2.357519531250001 4:1.4890847507305431 5:3.992628514344717 6:4.361505652694033 7:0.3915021806864373 8:-0.30250101223383513 9:0.17159603332767187 
1.0 0.18888081869749496 0.19639851765123026 1:-1.5926010131835937 2:-10.796139526367186 3:-1.010085296630859 4:2.0284153831913114 5:2.546684681172478 6:1.827525664923596 7:0.6026419143554558 8:-0.3148693089538942 9:-0.11313518302618332 
0.37366887552222944 0.08437305019138164 0.06927157080211359 1:1.9829048156738291 2:-9.767424774169926 3:-1.1807189941406255 4:2.7763605828693856 5:2.413182223040491 6:2.1743198450980694 7:0.3033634630928837 8:0.017507817109277693 9:0.025093738163102584 
0.8038302849033951 0.09768250653872713 0.10574234678313799 1:2.5310958862304704 2:-10.284233093261726 3:-1.7573516845703132 4:2.7002118684328176 5:3.444406825944321 6:2.7968821217212843 7:0.27025841366371284 8:-0.052543595333296146 9:-0.32679971158692767 
1.0 0.06771646483773965 0.12402616651937955 1:3.043003845214846 2:-9.489894866943363 3:-1.3513572692871105 4:0.7949912139470674 5:5.157545539338027 6:2.672189195907561 7:-0.0860921764356776 8:-0.18869827412442014 9:-0.5628054598065392 
0.0 0.02474586670547446 0.0 1:3.1940254211425785 2:-9.519315338134769 3:-1.4003913879394543 4:0.42562144329480256 5:3.472760803514986 6:0.9472542919561973 7:0.394057819545005 8:-0.27654948089441594 9:-0.4167014109776614 
0.0 0.032741761311418205 0.0 1:3.3009178161621113 2:-9.225116729736326 3:-1.497476959228517 4:0.5878358038485756 5:4.3367166433454205 6:1.1181589753896717 7:0.5276390188943966 8:-0.581939390692511 9:-0.3963320892518338 
0.8485622350054397 0.0 0.0 1:2.4163612365722673 2:-9.427133178710937 3:-1.6484977722167986 4:1.620301540505023 5:4.952937377602784 6:2.704214785608349 7:0.7654055339252855 8:-0.3094521686141892 9:-0.4657893960535712 
0.0 0.00780648479796497 0.0 1:3.5235298156738297 2:-9.114302062988298 3:-0.42953033447265654 4:0.733442388974946 5:3.849973804827374 6:2.180985719293825 7:-0.03465767637121999 8:-0.24411852995808295 9:-0.5083360610796128 
1.0 0.0 0.0 1:-1.8152099609375003 2:-9.563447570800786 3:-2.1211776733398446 4:2.3478428962500795 5:5.599865123301312 6:2.8936175366281534 7:-0.5102684548503885 8:-0.5443378229037212 9:0.6395597082529371 
1.0 0.0 0.0 1:-1.6269233703613282 2:-9.824304199218751 3:-2.4163581848144537 4:1.6120269828353795 5:6.14139524540864 6:2.30549322349194 7:-0.5070642829653315 8:-0.3881394187588554 9:0.7408092150559833 
1.0 0.0 0.0 1:-1.2993812561035165 2:-9.946885681152342 3:-2.142752075195313 4:1.1203073621465602 5:5.010718947763064 6:1.6882886842219182 7:-0.24327098443075557 8:-0.10456666123739475 9:0.3786555225251922 
1.0 0.0 0.0 1:-1.3023239135742197 2:-9.90471572875976 3:-1.3631225585937496 4:2.2644487833348115 5:6.215148601063393 6:5.814983071023595 7:-0.2158767060998074 8:-0.28651766319027294 9:0.603926861836657 
1.0 0.10809309440519148 0.11980966246501516 1:-1.8750312805175788 2:-9.845877075195304 3:-0.9728172302246089 4:2.2613694024150033 5:5.068337286878366 6:6.163882311933553 7:-0.2947432634428994 8:-0.30684639577540473 9:0.6151126193396169 
1.0 0.03374539123996233 0.03948878083273201 1:-1.72793197631836 2:-10.264621734619139 3:-0.5834953308105464 4:2.410564273942147 5:3.1298228454281443 6:2.1008150276372914 7:-0.07461596030038477 8:-0.31780246722115024 9:-0.0739199946815 
0.17891027759492947 0.05073536669137182 0.05524683911329156 1:-1.2493667602539062 2:-9.214328765869144 3:-1.84168930053711 4:0.9550527285668068 5:6.5804266507708435 6:1.459592308767025 7:-0.3475457407328636 8:-0.4363512777440229 9:0.5045146495549238 
0.4296501854571428 0.0 0.0 1:-0.9708587646484386 2:-9.576194000244136 3:-2.0309577941894528 4:1.4369564806483717 5:5.996099331171104 6:2.4110446265496988 7:-0.4642088722823632 8:-0.584104555746292 9:0.5124713889055222 
1.0 0.0 0.0 1:-0.8061073303222672 2:-9.936097717285158 3:-2.330061340332031 4:1.3830777329969028 5:6.5451786877098375 6:2.019787096369545 7:-0.14515406305706688 8:-0.6578799771918122 9:0.4372788379001837 
1.0 0.13397855348904217 0.14722255666870884 1:-1.661248016357423 2:-9.66151275634766 3:-1.8122695922851566 4:2.8364452969393463 5:7.12027858071729 6:2.216395981630777 7:-0.16332358371267153 8:-0.615360276682309 9:0.4891995636128744 
1.0 0.14374023794542537 0.15508171190164363 1:-2.1260826110839846 2:-9.706623077392583 3:-2.1505981445312514 4:2.9720629572280446 5:5.996178904289299 6:5.154277634071187 7:-0.18835586699743873 8:-0.3561943164137508 9:0.5992498383053407 
1.0 0.0 0.0 1:-1.3670478820800787 2:-10.102810668945313 3:-1.9005287170410168 4:2.3154817283450413 5:4.776976504051144 6:5.153834888303539 7:-0.2434907121895045 8:-0.39455527050144035 9:0.6601679335592691 
1.0 0.0 0.0 1:-1.4062721252441412 2:-9.94590530395508 3:-1.1365921020507819 4:1.289804020837766 5:5.553953978774951 6:1.9585440260381446 7:-0.4268512853852692 8:-0.5106555835670193 9:0.5834270462184256 
1.0 0.0 0.0 1:-1.321934509277345 2:-9.603652191162109 3:-2.030958557128907 4:1.416605308398141 5:6.034666471240913 6:2.6455150272441093 7:-0.42593302492029844 8:-0.5725613865701064 9:0.41962342253627855 
1.0 0.0 0.0 1:-1.29349594116211 2:-9.502644348144536 3:-2.3428108215332033 4:1.30743091345008 5:6.394582161682206 6:2.2288681718864236 7:-0.12154921615427412 8:-0.5649041658146232 9:0.44969370558039345 
1.0 0.0 0.0 1:-1.8858192443847668 2:-9.174122619628912 3:-2.0280174255371093 4:1.943535743827815 5:5.395040060628701 6:3.894270473888028 7:-0.3646515267975256 8:-0.5186650516268649 9:0.7368051078951195 
-0.4987102052537402 0.0 0.0 1:0.13925552368164124 2:-10.19793548583985 3:-1.8005012512207028 4:1.2608711577457163 5:6.993142642963251 6:1.682732801588137 7:-0.07710046315482451 8:0.4402808096252324 9:-0.39456096722728096 
-1.0 0.0 0.0 1:0.6590065002441413 2:-9.989054870605479 3:-1.7848106384277347 4:1.081165536220071 5:8.017266741211113 6:1.641896994790881 7:-0.10613099796128024 8:0.22924617791966453 9:-0.1530699783663744 
-1.0 0.0 0.0 1:0.3677490234375004 2:-10.122426605224618 3:-1.5268959045410169 4:1.66101305469871 5:5.169619995594861 6:2.480208267790154 7:-0.058008614962402255 8:-0.1676207605543991 9:0.026928164122723773 
-1.0 0.0 0.0 1:0.2775291442871096 2:-11.007965850830084 3:-1.327820587158204 4:1.7305417407135288 5:2.385293571894881 6:2.713704775238297 7:-0.5353022140137698 8:0.1872580610440052 9:-0.11684752243041426 
-1.0 0.0 0.0 1:0.14611968994140614 2:-10.545091247558606 3:-1.1866043090820317 4:1.0342361524910682 5:2.7126706191082732 6:2.1775904105533868 7:-0.2557204249004694 8:0.2824788497226606 9:-0.1065779272117304 
-1.0 0.0 0.0 1:0.13729400634765576 2:-9.87039413452149 3:-1.9838844299316425 4:1.211442496397069 5:3.6556996649428255 6:2.926288922696261 7:0.3511606383366226 8:0.031503888982596435 9:-0.1272449482795034 
-0.17418645952968048 0.0 0.0 1:0.29616165161132835 2:-9.189812469482423 3:-2.165307617187501 4:1.3232647154451131 5:5.004652303421767 6:2.828151895161721 7:0.044825535603929954 8:0.357043960532561 9:-0.07829772153741987 
-0.5736261507963962 0.01642352448305458 0.016982611174555025 1:0.11964111328125034 2:-9.535005950927735 3:-3.141070556640625 4:0.7974794717179625 5:6.185733728303481 6:5.812236933493984 7:-0.1555717285292838 8:0.5120589557964729 9:0.19001067453498646 
-0.0 0.042629438455235966 0.04892122608031573 1:0.20495986938476568 2:-9.651703643798829 3:-3.562757110595703 4:1.0148081682127699 5:4.306435305845804 6:3.8590193369257015 7:-0.0424724182083469 8:0.38768668774972725 9:0.2880350568513139 
-1.0 0.0 0.0 1:0.6423362731933598 2:-10.236180877685554 3:-2.5016769409179695 4:1.232897503959832 5:4.8819237965689055 6:2.1302667769347314 7:-0.17216881504154605 8:-0.14225455020026978 9:-0.09565675532038834 
-1.0 0.0 0.0 1:0.4922927856445309 2:-10.296002960205087 3:-1.2111206054687513 4:1.1277290135133085 5:5.290124653612173 6:4.14355493639596 7:-0.16250229569796357 8:0.24019281772979006 9:-0.26505288304890057 
-1.0 0.0 0.0 1:0.021573638916015322 2:-9.655628967285157 3:-1.311148071289063 4:0.6588808451377555 5:3.79973894872471 6:3.5130818473966796 7:-0.016476479292294777 8:0.30008750926696776 9:0.04027372827100709 
-1.0 0.0 0.0 1:0.5648605346679691 2:-10.001802825927737 3:-2.4624496459960943 4:1.520012977023145 5:4.394738682971233 6:2.130851774427576 7:-0.0540580821694036 8:0.15537678848847522 9:0.2395432894157097 
-1.0 0.0 0.0 1:1.1630661010742187 2:-10.117520904541015 3:-2.0917587280273455 4:1.8337772535416303 5:4.827836602862805 6:1.9807375635835367 7:0.10748130479539324 8:-0.0043178250670108 9:0.3358762964264092 
-1.0 0.03205681684761293 0.03734691551925917 1:1.0973648071289062 2:-9.87235488891601 3:-2.037821197509767 4:1.343131461387966 5:4.046702780301547 6:1.0774118882900823 7:0.21703357584680938 8:-0.037116898900827804 9:0.11310740402691416 
-1.0 0.0454190332472957 0.0528075769860251 1:1.2111228942871102 2:-10.499980163574214 3:-1.1885658264160164 4:1.1140688839898218 5:5.2703022080729625 6:3.8376680422405522 7:0.27946550346286625 8:-0.49333037576714084 9:-0.205614192532511 
-1.0 0.0 0.0 1:0.9394775390625005 2:-10.330324554443358 3:-0.4991584777832031 4:1.980028446144426 5:4.777099724423024 6:3.890761815483567 7:-0.028052574493009845 8:-0.28243865427490117 9:-0.32476957401665685 
-0.27300007715177504 0.06903714872814636 0.07824053581510526 1:0.24810791015625006 2:-9.241786956787111 3:-1.378815460205078 4:2.326222108374354 5:1.5412555004208088 6:3.29995987039234 7:-0.11671870099907257 8:0.20534272652112398 9:-0.21853788543176428 
-1.0 0.0 0.0 1:0.2932182312011723 2:-10.261679840087886 3:-2.5713050842285163 4:1.7127755973552161 5:7.224036712722755 6:2.072659340232493 7:-0.1517119357081209 8:0.03417599061574762 9:-0.15526995208799696 
-0.12151854727591209 0.12311095509500969 0.1413330884190416 1:2.0956809997558596 2:-9.37025299072266 3:-1.7318542480468757 4:2.292286884562928 5:8.809120498851435 6:2.7457824773527735 7:0.007477361516236606 8:0.46049400183640576 9:0.4953854321700204 
-1.0 0.0 0.0 1:-0.3834381103515624 2:-10.807909393310544 3:-2.8694267272949237 4:1.1820296100573628 5:4.0688697070878375 6:3.392049656386374 7:0.10072234078538073 8:-0.029034847920879764 9:0.2375056113523278 
-1.0 0.0 0.0 1:-0.23437728881835979 2:-9.959633636474612 3:-2.0907783508300795 4:0.6173161139542948 5:4.771262808923484 6:2.4517077781463765 7:0.2033756755725179 8:0.01248102540924159 9:0.13249762280928656 
-0.0 0.05341405990432341 0.063525999608212 1:-0.3059661865234377 2:-9.384964752197266 3:-3.048887634277347 4:0.782338867816143 5:8.886467051237682 6:6.779253327448414 7:-0.3224859352490471 8:0.7127018369142648 9:-0.2795314934769302 
-0.09564652807816121 0.09870833576358239 0.1132070358095813 1:-0.7139236450195319 2:-10.238141632080078 3:-3.9864028930664093 4:0.7621070384536879 5:12.487185740314313 6:5.6755811151326885 7:-0.0978695725719341 8:0.7377191826874999 9:-0.37106642048904825 
-0.050673579317220795 0.0958231604641979 0.11008491833249116 1:-0.6354728698730482 2:-10.347975921630866 3:-3.9550224304199233 4:0.971490374749411 5:10.031241457384922 6:2.172266924643772 7:0.10047458123121979 8:0.4420608674869053 9:-0.21311592839458518 
-1.0 0.0 0.0 1:0.4236465454101569 2:-10.23618164062501 3:-2.3486938476562513 4:1.1496365054254436 5:3.947442370243393 6:1.1826608357485393 7:0.2296220627589329 8:0.24009714802062318 9:-0.2358660143994357 
-1.0 0.0 0.0 1:0.2216300964355476 2:-9.184908294677733 3:-1.4925743103027347 4:1.0931148648698603 5:3.556922636629884 6:1.495983052958615 7:-0.06916857833507264 8:-0.26729181880227626 9:-0.3973585181273343 
-1.0 0.0 0.0 1:-0.5334815979003913 2:-9.298666381835933 3:-1.774024200439453 4:0.9844216068246189 5:4.767740731532667 6:2.308028638909451 7:-0.1440853624946914 8:-0.27492696919858917 9:0.7069847668452851 
-0.872497579899285 0.0 0.0 1:-0.7090209960937511 2:-9.687991333007808 3:-2.441856384277344 4:0.8681975459540288 5:8.669705834742656 6:4.504373714409306 7:-0.21152553716960898 8:0.19192229754660603 9:0.4367027213614655 
-0.0 0.029107655398709166 0.03208749917802859 1:-0.22261047363281264 2:-10.227355194091787 3:-3.8128265380859387 4:1.9390762412222124 5:9.073313089168508 6:7.210792930130848 7:-0.053743441664518526 8:0.42422806266361873 9:-0.33060942339550603 
-0.0 0.07626172732843833 0.08800188367252176 1:-0.2991035461425785 2:-10.958930969238278 3:-4.560092163085939 4:2.1361344313126773 5:6.757355494273374 6:2.9557595813786626 7:0.2677201522092249 8:0.3170170362728033 9:-0.36767582148034283 
-1.0 0.0491625536570985 0.05560472493678182 1:-0.8610237121582026 2:-9.073113250732424 3:-2.8125480651855477 4:0.7818992187146777 5:5.201996490230689 6:0.939137822489136 7:0.12949500441166029 8:-0.03616168976943666 9:0.05848756564327882 
-1.0 0.0 0.0 1:-0.29321975708007775 2:-9.339855194091793 3:-3.446056365966798 4:1.0760872741107592 5:5.951753828462099 6:2.4133376202982655 7:0.02220746036736099 8:-0.10023008888840065 9:-0.21567674829228553 
-0.7781637154750249 0.0 0.0 1:-0.29027633666992153 2:-9.977286529541011 3:-3.553928375244143 4:1.1228695366409378 5:4.16795617066032 6:2.5006833791238066 7:0.0369196782264074 8:-0.2434248696575572 9:-0.11988233454162922 
-1.0 0.0 0.0 1:-1.2895744323730471 2:-9.687009429931644 3:-2.0652809143066415 4:1.7370267531246664 5:5.530983966315999 6:1.9570744695811306 7:0.5597191190880317 8:0.23686908786241614 9:0.1679893087650512 
-1.0 0.0 0.0 1:-1.5308189392089844 2:-9.17608261108398 3:-1.2650581359863284 4:2.0899173820362207 5:3.601707708413585 6:1.717237229768072 7:0.4720844504816139 8:-0.06591351776732189 9:0.11850012447058415 
-0.0 0.14263325157253048 0.1653506406157404 1:-1.0336204528808604 2:-9.888043975830072 3:1.3856803894042977 4:2.608447826194462 5:2.8661579975922105 6:6.652584259083385 7:-0.29438681820631274 8:0.059183171019472826 9:-0.3222881049028242 
-1.0 0.0 0.0 1:-1.1159980773925793 2:-9.928252410888671 3:0.257914733886719 4:2.3335889079252965 5:5.600371449684584 6:4.097026236683598 7:0.035069530201190795 8:-0.39198804465961423 9:-0.3893365295677028 
-0.1526991338204106 0.0974118839205073 0.11223852546497573 1:-1.6435951232910164 2:-10.001802825927742 3:-0.875733184814453 4:1.2527038082078799 5:11.946993362863477 6:2.8683846656110834 7:0.49263547826598114 8:-0.0664011584998079 9:-0.4238468731557148 
-1.0 0.0 0.0 1:-0.944379425048829 2:-9.795863342285159 3:-1.8769927978515633 4:1.778891018877626 5:5.166485214724674 6:1.511074524568394 7:0.2679903062011719 8:-0.02740683019910992 9:0.014393626892195234 
-1.0 0.0 0.0 1:-0.8384674072265632 2:-9.802727508544924 3:-2.065280914306641 4:0.7576992960553628 5:5.601868193467986 6:2.301475729767117 7:-0.04688590800893447 8:0.2518050979949767 9:-0.14905480229266288 
-0.0 0.019969999635915503 0.019269479516680284 1:-1.4445198059082034 2:-9.560504150390626 3:0.05393600463867154 4:1.4109840071405046 5:2.800537785133362 6:4.514882516415673 7:-0.21597228206997204 8:-0.05122500269937279 9:-0.23386990112720585 
-0.0 0.04738335809412546 0.0537667619318741 1:-1.4121589660644538 2:-10.203820037841803 3:-0.00686569213867263 4:1.6982522329984935 5:10.218823288671615 6:4.834534626278909 7:0.18991947787283145 8:0.23925985323051932 9:-0.3744309272613696 
-0.19765374064267255 0.12187263566086586 0.14002767712348038 1:-0.9992988586425791 2:-10.850077819824223 3:-1.1434555053710938 4:1.498734794963967 5:14.28671369434104 6:5.666786065476483 7:0.42079057551190474 8:0.10562062415564145 9:-0.5083788060632781 
-0.3891878609885892 0.0 0.0 1:-0.5874206542968754 2:-10.306789398193358 3:-1.1895454406738275 4:1.1045168619276962 5:8.806348287963171 6:6.278781690832114 7:0.5191888998498003 8:-0.019739173774936728 9:-0.39652367952579626 
-0.07132369703819622 0.031504623394587546 0.03474141607001553 1:-0.2981239318847656 2:-10.391126251220708 3:-0.9875289916992175 4:1.2453920262696905 5:7.869729210279803 6:9.352740979499654 7:0.30577737746073713 8:0.03785880576163472 9:-0.28311205994603167 
-1.0 0.0 0.0 1:-0.560942077636719 2:-10.05279693603516 3:-1.246424102783203 4:2.88377843317343 5:2.7436452875123547 6:3.959309343650824 7:-0.19794353509027543 8:-0.18010523398488834 9:0.3399352596653566 
-1.0 0.0 0.0 1:-0.6462593078613292 2:-9.267284393310552 3:-1.058136749267578 4:1.1367144243296954 5:4.391427731231713 6:0.9514138075168015 7:0.09068831731844258 8:0.17456670530017537 9:-0.1388619224856369 
-1.0 0.0 0.0 1:-0.7551139831542975 2:-9.031924438476562 3:-1.3082069396972662 4:0.5652310643874806 5:3.7053062107553556 6:2.1106366637459772 7:0.3107095611791606 8:0.03333738185583974 9:-0.06050854055337758 
-1.0 0.0 0.0 1:-0.9777244567871097 2:-9.348678588867188 3:-0.6864646911621091 4:1.0600051449442993 5:3.9804998052073506 6:3.3745402813487524 7:-0.2013021568628084 8:-0.3548595659092665 9:-0.18734886454172792 
-0.23168542020934313 0.0 0.0 1:-1.1258041381835941 2:-9.896871948242195 3:-0.9590919494628911 4:0.7996140690078022 5:5.028756082183703 6:3.9567179081373665 7:0.15565867208472547 8:-0.03533924439466538 9:-0.3952113053235851 
-1.0 0.0 0.0 1:-1.2326980590820322 2:-9.55854034423829 3:-1.7446029663085938 4:1.8164810113818384 5:4.942905246384952 6:2.368890878374221 7:0.36386664342324027 8:0.3542204259972466 9:-0.12799388202153034 
-0.5834971745863339 0.0 0.0 1:-1.274865722656251 2:-9.903734588623056 3:-2.3673271179199213 4:3.4792558439634775 5:5.139018986892808 6:6.275822653232003 7:0.112762553367109 8:0.481696817727278 9:0.3500561192122481 
-0.12727457604420572 0.0 0.0 1:-1.3964660644531257 2:-10.294040679931637 3:-2.085875701904296 4:3.2504308794532015 5:5.069110635758263 6:6.136725359723766 7:0.008882557681781726 8:0.415878630232694 9:0.33656734814868927 
-0.1809722480021174 0.0 0.0 1:-1.911313629150392 2:-10.372492980957022 3:-0.9914543151855474 4:1.8129866531881276 5:3.917294583867733 6:3.4376863015693395 7:0.10866212211843078 8:0.15568327097282603 9:-0.4472188459025502 
-0.23047339101639272 0.1503402296087189 0.17314580533430077 1:-1.514145660400391 2:-10.448004150390615 3:-2.1407936096191396 4:1.4609260380145872 5:12.526355922254723 6:9.435332043503275 7:-0.15458173848183993 8:0.5440998017634692 9:-0.6617703663486157 
-0.2993571357226088 0.19025790871017634 0.21859496078235907 1:-1.0081237792968758 2:-11.53065872192382 3:-4.466929626464844 4:0.8155011414177726 5:23.404879097265102 6:24.938725225536636 7:0.28050947751196953 8:0.7987353543203586 9:0.3971944719968522 
-0.2992762845083775 0.19023366754564824 0.21855603073034313 1:-1.6180961608886737 2:-10.992272949218746 3:-2.7635131835937505 4:0.9663397380261447 5:17.20486830778887 6:26.99957803721543 7:0.4441390884530726 8:0.7856643556801174 9:0.314191144965474 
-1.0 0.0 0.0 1:-1.4876686096191414 2:-10.303847503662109 3:-0.8355270385742208 4:2.2140476718143343 5:3.518882674455516 6:5.051119375086858 7:0.0036239863901947104 8:-0.24198489630286948 9:-0.3486026901461071 
-1.0 0.0 0.0 1:-1.8397277832031258 2:-10.731417846679681 3:-1.3042831420898442 4:3.142645530668092 5:5.877745660128992 6:2.4068966409307966 7:0.45485605303982557 8:0.2385673878227614 9:0.4984703475161165 
-0.35855326489172307 0.04031998932030726 0.04746584809250326 1:-1.621038055419922 2:-8.976028442382809 3:-0.8933845520019537 4:0.8868966594635281 5:3.382048975443449 6:1.3794831120705937 7:0.1578515898856064 8:0.3854048849476147 9:-0.31274634008189706 
-1.0 0.0 0.0 1:-1.4082351684570316 2:-10.327381896972662 3:-1.1552207946777349 4:1.5011621836316797 5:4.492861603505456 6:2.7026907521643486 7:0.4634212825765242 8:-0.14313472522364082 9:0.2969035749816073 
-1.0 0.0 0.0 1:-0.8306236267089847 2:-10.70199661254884 3:-1.3866584777832043 4:2.0760546066070686 5:6.669882843328533 6:2.6637706363218663 7:0.4551750285427782 8:-0.2714435199479007 9:0.12580997959304419 
-0.0 0.09332884435615217 0.10621505089216657 1:-0.9571289062500001 2:-11.553213500976561 3:-1.4082336425781252 4:4.271985196005551 5:8.858309544795173 6:3.7291674104984893 7:0.5162815539396894 8:0.032883561756833934 9:0.48100729080476223 
-1.0 0.0 0.0 1:-0.602127838134766 2:-9.839993286132813 3:-1.7671577453613299 4:1.8810939659475128 5:4.746933191935532 6:2.762159393599143 7:0.25277378597543365 8:0.37251684728090423 9:-0.017283869973432148 
-1.0 0.0 0.0 1:-0.5756492614746103 2:-9.987093353271481 3:-1.3592010498046876 4:1.2554946799966293 5:4.181207156420584 6:1.2091726172110075 7:0.4807681453198413 8:0.1956730008154387 9:0.09682985434576903 
-1.0 0.0 0.0 1:-0.6276252746582037 2:-10.45584945678711 3:-1.8495346069335934 4:0.8926181676209687 5:2.9774323847022686 6:0.9536300148558825 7:0.5198314214546308 8:-0.1250988419438672 9:-0.09960504721444266 
-1.0 0.0760814944600419 0.08637598701994482 1:-0.8492561340332034 2:-10.716706085205079 3:-2.0113449096679696 4:0.9717497467825899 5:2.05632996713918 6:1.0240021597244775 7:0.0940564532549913 8:-0.1703832953190939 9:-0.05192870822893519 
-1.0 0.0 0.0 1:-0.238300323486328 2:-10.17341918945312 3:-1.822075653076173 4:2.4385104391461967 5:2.467774820504719 6:1.788917133665528 7:0.07541102259620042 8:0.21176812639805145 9:0.07336269454828985 
-1.0 0.052260764419355024 0.0619927404868 1:0.34519577026367243 2:-9.25943908691406 3:-1.6259429931640639 4:1.8682629329123324 5:1.360577162830161 6:1.6478143253736228 7:-0.08123655001804503 8:0.41356706677255944 9:-0.023163944927419446 
-1.0 0.0 0.0 1:-0.06962509155273432 2:-9.759578704833988 3:-0.4766036987304689 4:0.6808275381912255 5:3.5387380081199966 6:4.129330510415605 7:0.26831993973188994 8:-0.5006075744901605 9:-0.2115102041039036 
-1.0 0.0 0.0 1:-0.9639923095703139 2:-10.061623382568365 3:-0.9698776245117194 4:1.7788198423944437 5:4.3333956064301535 6:6.24644311095821 7:0.20528803093604878 8:-0.2853097563892001 9:0.4531139691747434 
-1.0 0.0 0.0 1:-0.9728195190429695 2:-9.838030242919931 3:-1.7975593566894534 4:1.8775344395800526 5:4.583410906053075 6:5.940875925130096 7:0.2107759530720965 8:0.18381613640574931 9:0.32586729650530405 
-0.7322577358444361 0.04064697864860439 0.046026244928234136 1:-0.29910354614257806 2:-9.82430114746094 3:-0.5236755371093744 4:1.0254792553948933 5:4.665252755708073 6:7.348491216856059 7:-0.04560710568389851 8:0.12837163665651175 9:-0.01222229010838827 
-0.11891162544454884 0.12103900081883268 0.14013823324270258 1:-0.6805816650390628 2:-10.742203521728506 3:-1.253290557861328 4:1.570614460702053 5:6.956892956385201 6:10.5686205737357 7:0.18184885062588324 8:0.6181446760030205 9:0.405813229864626 
-0.012901426915370844 0.00597276842276064 0.007497302704845817 1:-1.397447204589844 2:-11.386500549316397 3:-2.350655364990235 4:1.3703043671068735 5:7.103862490833251 6:6.4875120658771035 7:0.31492883507186414 8:0.592292962430513 9:0.3941973497612121 
-0.8527389712331401 0.027280070766509623 0.03012077536046267 1:-1.0444084167480476 2:-10.8196762084961 3:-2.131966400146485 4:1.5114827572199299 5:6.457047591989445 6:0.8556534082040894 7:0.18856772602522315 8:0.2928639409937787 9:-0.3096494785707044 
-1.0 0.0 0.0 1:-1.209160614013672 2:-10.51861190795899 3:-1.5984840393066415 4:1.2337600046180892 5:6.136364119171075 6:4.162267561859335 7:0.12033990273280923 8:-0.3904298979472247 9:0.3026261351072011 
-0.0 0.04781762799226128 0.054308259558712824 1:-1.813250732421876 2:-9.818418884277346 3:-0.5040611267089845 4:0.9595297188172116 5:7.619828437080143 6:4.671762628114664 7:0.20247705765374557 8:-0.474830008405813 9:-0.38345047599853577 
-0.49124736271837605 0.02381204601703111 0.02663639782712281 1:-1.6494789123535167 2:-10.854979705810546 3:-0.19024734497070245 4:2.616207591650892 5:6.006597632134221 6:7.289062927394991 7:-0.17499074857066652 8:-0.25145741117548787 9:-0.11422047301774942 
-0.0 0.0 0.0030103569519940865 1:-1.7818679809570326 2:-10.182244873046875 3:-0.6570457458496086 4:1.4513325131847548 5:2.9779858942702306 6:3.8234075520950164 7:-0.5297986128684573 8:-0.3405915633884283 9:-0.026654797786307048 
-0.0 0.02805468195551899 0.03448705584559633 1:-2.1966896057128915 2:-9.456553649902343 3:-1.8593421936035157 4:1.2882187392300701 5:4.8216101959603925 6:5.0844776212301825 7:0.33053411114903847 8:0.09144313078273658 9:0.03698969995273378 
-1.0 0.0 0.0 1:-2.1407913208007807 2:-9.836070251464838 3:-1.6014266967773438 4:1.5705481267510932 5:5.322356171419373 6:3.5283145100553517 7:0.287102815513249 8:-0.33028408974644463 9:0.02688166622442758 
-1.0 0.0 0.0 1:-1.6435958862304687 2:-10.427410888671876 3:-1.371951293945313 4:1.3289425073214818 5:5.410902021653053 6:2.8028855389589418 7:0.12640025386467652 8:-0.24413393982677575 9:0.1662497288717849 
-1.0 0.0 0.0 1:-1.374894714355469 2:-10.55195541381836 3:-1.402351379394532 4:0.8681422816100536 5:4.557510666699981 6:3.391603523108639 7:-0.5355165031938729 8:-0.32429898083491204 9:0.3727484679323811 
-1.0 0.0 0.0 1:-1.5121871948242196 2:-10.075351715087896 3:-0.8472946166992189 4:1.1568849567114388 5:5.279750192977384 6:3.716704693695064 7:-0.47015914544196485 8:-0.3970754854531256 9:0.21282629817036808 
-1.0 0.0 0.0 1:-1.848554992675782 2:-9.410460662841801 3:-1.1032470703124997 4:1.539295674578754 5:3.2794342254864945 6:2.95396829097066 7:-0.305926528338612 8:-0.49327245520956675 9:0.1274774529931971 
-0.20982025371963886 0.0 0.0 1:-1.7210662841796887 2:-10.02828140258789 3:-1.4082359313964845 4:0.8828814017027632 5:6.9959716466598705 6:5.508203880704821 7:-0.06857220363878523 8:-0.02720345732526208 9:0.2172301821010124 
-1.0 0.0 0.0 1:-1.8554191589355487 2:-10.332286071777341 3:-1.9122985839843754 4:1.0179226683656464 5:7.00084259847876 6:2.8873998368484903 7:0.1453666351278671 8:-0.3264085614668729 9:0.03138012764698335 
-1.0 0.0 0.0 1:-2.0917579650878926 2:-9.963555908203118 3:-0.985567474365235 4:1.1236621902434858 5:5.724598809946306 6:1.9498672492633387 7:0.17192201633548929 8:-0.5355041660706217 9:-0.06886083360057786 
-1.0 0.022471390206893458 0.021959025231089342 1:-2.6693687438964866 2:-9.913542175292962 3:-0.8286613464355467 4:1.7419839163281736 5:4.822189810217806 6:2.5599736722017434 7:0.07367728978182823 8:-0.29118129665295367 9:0.13485069428099705 
-1.0 0.0623447308112697 0.07512094364596045 1:-2.240819549560548 2:-10.436236572265624 3:-0.8963294982910156 4:2.8455167215381536 5:6.347704090937034 6:1.9784598337783261 7:-0.22275481158504648 8:-0.0526433924160962 9:0.1719327500637961 
-1.0 0.0 0.0 1:-1.0571556091308596 2:-9.440862274169929 3:-1.5367019653320309 4:1.8740127160650473 5:3.167135861429289 6:2.998378140854186 7:-0.04511496707105532 8:0.009041392125242891 9:0.582755094503436 
-1.0 0.0 0.0 1:-1.12482147216797 2:-9.935117340087896 3:-1.0630401611328124 4:1.5321980947651914 5:4.352302313974947 6:3.4183454594435205 7:0.16950790381228442 8:-0.04885395431668973 9:0.432385640045322 
-1.0 0.0 0.0 1:-1.0914787292480477 2:-10.008664703369138 3:-1.6347686767578131 4:1.1670589623803995 5:4.3690636048856 6:4.09279239616823 7:0.10081746442457684 8:0.019135480246370986 9:-0.033624415785864066 
-1.0 0.0 0.0 1:-0.6129142761230473 2:-10.221469116210939 3:-2.2712203979492194 4:1.4862491724191986 5:5.180371003635259 6:4.733536585120026 7:-0.4497386872487595 8:-0.027844345332590906 9:0.05687412280328681 
-0.0 0.06945190287442896 0.0806755649229337 1:-0.5844757080078125 2:-11.076609802246097 3:-1.5975021362304687 4:4.636276142010475 5:5.929982321246076 6:5.555212803229228 7:-0.18496338329538364 8:-0.13273206235556942 9:0.15869989822701105 
-1.0 0.0 0.0 1:-0.917901611328125 2:-10.240103149414065 3:-1.3062461853027356 4:4.090760737853129 5:5.216895730569975 6:4.968218207132887 7:-0.07000323037126037 8:-0.2887024292519166 9:0.2103461506829599 
-1.0 0.0 0.0 1:-0.6237014770507815 2:-9.488915252685551 3:-1.2581932067871107 4:1.8482237062626528 5:5.905355072311972 6:3.365283896203034 7:-0.09399247383706838 8:-0.43343118543238573 9:-0.0727768173396856 
-1.0 0.0 0.0 1:-1.0179298400878918 2:-9.873336029052739 3:-1.7053756713867192 4:2.6856912839802733 5:7.342086852632373 6:3.238154601713176 7:0.05771709963170591 8:-0.19185370265950336 9:0.17746212250334167 
-1.0 0.0 0.0 1:-1.644576263427736 2:-9.931195068359376 3:-1.9544654846191416 4:1.3065452698728794 5:6.091482480233522 6:3.4457161138131056 7:0.2555609243073193 8:-0.21258240193203048 9:0.09169198729493223 
-1.0 0.0 0.0 1:-0.4883712768554692 2:-9.612477874755859 3:-1.530817413330079 4:1.3493082998995687 5:5.440901412681532 6:3.309584780323204 7:0.20563149477397272 8:-0.2755650475284358 9:-0.3018434935908748 
-0.04884860932019561 0.04497530470055197 0.05202792531450727 1:-0.2608558654785167 2:-9.41732406616211 3:-2.945916748046877 4:2.0770152219681806 5:5.702264183756773 6:8.456977839032223 7:0.3232132346552529 8:0.4499491792135039 9:0.5438815460734852 
-0.06374003989955428 0.11699448123841727 0.13375755692584737 1:-1.0934402465820328 2:-10.26461868286133 3:-3.5402000427246114 4:4.537701923379215 5:7.110085928171749 6:8.245243224582548 7:-0.19068657135717199 8:0.11020605143141897 9:0.3714660372278472 
-1.0 0.0 0.0 1:-0.7600143432617191 2:-10.271483612060553 3:-2.180017852783204 4:3.558804004059644 5:6.9785147640499146 6:4.790060288675018 7:-0.5379945294470205 8:-0.4052041026383938 9:0.26701545523437 
-1.0 0.0 0.0 1:-0.25203094482421884 2:-10.434273529052742 3:-1.3111488342285162 4:0.9042850680393191 5:6.799243220255638 6:3.4985340119915795 7:-0.1694028592362667 8:-0.3707740969932299 9:-0.1664056705283814 
-1.0 0.0 0.0 1:-0.7511894226074223 2:-10.40975799560547 3:-1.293497467041016 4:1.2911108591238754 5:5.809957938033646 6:2.6082353646465357 7:0.10918564130734842 8:-0.15702062202974235 9:0.09046698891208518 
-1.0 0.0 0.0 1:-1.2356384277343757 2:-9.948847961425779 3:-1.6141746520996094 4:0.889728075675668 5:5.52625695432302 6:3.0444830261514313 7:0.1957659282177271 8:-0.17825276297149945 9:0.2919055705998116 
-1.0 0.0 0.0 1:-1.3758735656738286 2:-9.990035247802734 3:-1.910336303710937 4:1.1979828274081246 5:5.481026424408758 6:3.688876307560131 7:-0.04924183082740425 8:-0.26000072641102384 9:-0.24192414500909326 
-0.2245613142924885 -0.25682712661114354 0.14558343781498306 1:-0.2539932250976565 2:3.8442070007324225 3:9.18098602294922 4:0.0027494821255095313 5:0.0013464331038994975 6:0.0034968216181732723 7:0.46980719537667764 8:-0.23932473258111897 9:-0.2797633036519099 
-0.058579355631780725 -0.060569089093945996 0.04481444173613566 1:-0.25595474243164096 2:3.8157676696777356 3:9.1800048828125 4:0.004249818713287838 5:0.0011723351961699692 6:0.003711294862441777 7:0.13398000149053857 8:-0.5214086003790457 9:0.038984981142776334 
-0.427705184649217 -0.4819332782910981 0.28908267197046206 1:-0.3177368164062503 2:3.774578857421877 3:9.164314270019531 4:0.0028311266005039194 5:9.79911293834401E-4 6:0.00595784221077347 7:-0.36028573949431236 8:0.15727373763343155 9:-0.40745851340479744 
-0.4053416405055003 -0.4587654264264494 0.26961609049918017 1:-0.3206779479980472 2:3.8304779052734395 3:9.150585174560547 4:0.0029726954054785848 5:0.0016193906916304988 6:0.0026340571203036216 7:0.2024806933939111 8:-0.10523654526176009 9:0.4456895210379504 
-0.3955860224390237 -0.44599792688195816 0.26561676094144643 1:0.12062377929687507 2:1.471979522705078 3:9.69877624511719 4:0.0015876686107367363 5:9.799876081524532E-4 6:0.0027502951212227344 7:-0.2335779069795721 8:0.6384864406400428 9:-0.18864662514618608 
-0.3510913929647154 -0.3953535104768222 0.23514590222846993 1:0.12062225341796887 2:1.4592292785644534 3:9.694854736328127 4:0.0017415795917622864 5:0.002400398498284571 6:0.0010808593593537614 7:0.25207375142378585 8:-0.44658939314566853 9:-0.3770691122206838 
-0.43950746648488936 -0.49616768674329936 0.29578323361406667 1:0.15298309326171894 2:1.4582489013671873 3:9.672299194335938 4:0.0012155864597298252 5:0.0028572404664009535 6:0.0012414848571643301 7:0.6130604912330161 8:0.2956220372238159 9:0.4164562822282657 
-0.32458582836752864 -0.38992351803652486 -0.20306564212157713 1:8.863249969482425 2:-6.586145019531251 3:-0.9080947875976564 4:1.4695519870956155 5:0.8008550092671058 6:0.25862540288129826 7:-0.5900727984334222 8:0.570431357480612 9:-0.44254639857329725 
-0.32559252850744724 -0.3696327158916017 -0.18987493426579613 1:8.452351379394532 2:-7.149049377441408 3:-1.071866607666016 4:0.4892182543431402 5:0.8213548544538221 6:0.19384966830897613 7:0.3110596334543271 8:0.312767831819386 9:0.45634052240264245 
-0.02967004364274063 -0.0 -0.0 1:7.995363616943361 2:-7.190235900878908 3:-2.7027114868164075 4:0.5207937076984669 5:0.5330313618085353 6:0.21298366170143795 7:-0.5404029723737733 8:-0.08988523146707855 9:0.006607602388795616 
-0.0 -0.10170109840867059 -0.0585287669107591 1:7.699199676513674 2:-7.4010787963867175 3:-2.5477668762207037 4:0.5042565927113182 5:0.29844616374233734 6:0.12882466205570337 7:0.06444499587638586 8:0.5492915219850042 9:0.25287508252851865 
-0.9141276119755611 -0.8096538952725213 -0.41465763064159517 1:7.583483123779298 2:-7.493260955810548 3:-2.5173667907714865 4:0.5461411926959415 5:0.32692127573012875 6:0.12703193661931403 7:-0.10717000976707242 8:0.5860824670914278 9:-0.18770299966472745 
-0.0 -0.14048759548183176 -0.07302080344065633 1:8.023802185058596 2:-7.398136138916017 3:-2.263375091552736 4:0.6589561172039236 5:0.3798599956993708 6:0.1729307260474891 7:0.4491229222655776 8:-0.2602231067784486 9:-0.3570949135309981 
-0.16829990878309942 -0.0 -0.0 1:8.006150817871093 2:-7.401078033447267 3:-2.312408447265627 4:0.5494640860450444 5:0.8457725486363037 6:0.20803219676017867 7:0.5277954840634881 8:0.021172132007987114 9:-0.2146156175659514 
-0.43428909365702356 -0.4739663870108721 -0.24467076387106135 1:9.066249084472654 2:-4.641487121582032 3:-1.5013992309570319 4:0.46692119918529873 5:0.33218334926059423 6:0.1021495177666657 7:-0.39875387542965174 8:0.10878761686870873 9:-0.4426571575406213 
-0.5678693101785511 -0.6962853719510895 -0.3618239975532988 1:9.32612457275391 2:-4.670909118652345 3:-1.9927131652832046 4:0.7519956446928049 5:0.5376405263575721 6:0.1814305200119271 7:-0.2617953720827755 8:0.1866148339135247 9:-0.4850516595243499 
